%YAML:1.0
---
opencv_ml_svm:
   format: 3
   svmType: C_SVC
   kernel:
      type: INTER
      gamma: 1.
   C: 100.
   term_criteria: { iterations:10000000 }
   var_count: 4
   class_count: 2
   class_labels: !!opencv-matrix
      rows: 2
      cols: 1
      dt: i
      data: [ 1, 2 ]
   sv_total: 30
   support_vectors:
      - [ 1.00297413e+01, 3.62403631e+00, 1.94442215e+02, 2.70674133e+02 ]
      - [ 9.82555580e+00, 1.19135094e+01, 1.64899902e+02, 2.14578262e+02 ]
      - [ 2.79880409e+01, 1.44404221e+01, 1.80899628e+02, 2.41738052e+02 ]
      - [ 9.50177288e+00, 7.66803455e+00, 1.77315628e+02, 2.19576569e+02 ]
      - [ 3.88404894e+00, 4.71673441e+00, 1.89096054e+02, 3.99951477e+01 ]
      - [ 4.13205004e+00, 2.14892697e+00, 1.89774582e+02, 7.88769531e+00 ]
      - [ 7.94456625e+00, 9.11751556e+00, 1.51193497e+02, 2.12016876e+02 ]
      - [ 7.53850269e+00, 1.92211418e+01, 1.91983170e+02, 5.45616455e+01 ]
      - [ 7.53850269e+00, 1.92211418e+01, 1.91983170e+02, 2.34059006e+02 ]
      - [ 3.03500938e+00, 1.80942383e+01, 1.56137375e+02, 1.25566467e+02 ]
      - [ 1.33578720e+01, 1.85752468e+01, 1.51535019e+02, 2.05548004e+02 ]
      - [ 2.23347473e+00, 3.11452937e+00, 1.93832870e+02, 3.06298248e+02 ]
      - [ 5.65373564e+00, 9.82670021e+00, 1.72807739e+02, 2.34637634e+02 ]
      - [ 3.93089604e+00, 3.37668228e+00, 1.95481842e+02, 6.59979248e+00 ]
      - [ 4.04313564e+00, 1.31236658e+01, 1.61910660e+02, 4.67045898e+01 ]
      - [ 3.73828816e+00, 1.52518606e+00, 1.84441559e+02, 1.24380493e+01 ]
      - [ 2.72706437e+00, 9.03573322e+00, 1.91948090e+02, 2.41946442e+02 ]
      - [ 5.85399675e+00, 7.03589010e+00, 1.94149612e+02, 4.51119690e+01 ]
      - [ 2.68542385e+00, 1.03191586e+01, 1.90961823e+02, 4.96118469e+01 ]
      - [ 1.28561220e+01, 4.81299448e+00, 1.94211136e+02, 2.47075928e+02 ]
      - [ 4.20725012e+00, 2.06358194e+00, 1.93231842e+02, 2.11305511e+02 ]
      - [ 6.46250296e+00, 1.72664814e+01, 1.11787132e+02, 2.64590942e+02 ]
      - [ 4.79210567e+00, 1.72688427e+01, 1.88113556e+02, 5.40138550e+01 ]
      - [ 1.39302816e+01, 8.16761398e+00, 1.93083572e+02, 2.36213364e+02 ]
      - [ 4.73055363e+00, 1.12626696e+01, 1.91602310e+02, 4.64949951e+01 ]
      - [ 1.02251158e+01, 1.94727859e+01, 1.10739929e+02, 8.46188354e+01 ]
      - [ 1.05154209e+01, 7.15401220e+00, 1.26769569e+02, 9.38526611e+01 ]
      - [ 5.09660196e+00, 1.13055201e+01, 1.85681503e+02, 5.54770203e+01 ]
      - [ 5.15410757e+00, 1.63192997e+01, 1.27741714e+02, 6.50070496e+01 ]
      - [ 3.34519386e+00, 1.67212124e+01, 1.85335342e+02, 8.32550049e+00 ]
   decision_functions:
      -
         sv_count: 30
         rho: -3.9298693620933312e-01
         alpha: [ 4.8528826933822572e-02, 1.2974820999672280e-02,
             8.3768138619812832e-02, 6.3847995039242586e-02,
             1.9706094277262359e-01, 7.9725379741712205e-02,
             2.1801895789439057e-02, 2.8101954321282052e-01,
             1.3216230754359570e-01, 2.2685153876114496e-02,
             3.5244388902877240e-02, 1.8616595559937731e-02,
             2.9140257216644205e-02, 1.7855546652432808e-01,
             2.4360086850318985e-02, 6.3693458295126626e-02,
             -2.3457668385354455e-03, -1.7202355691923113e-01,
             -3.0270737797136755e-02, -1.4777241319411599e-01,
             -1.6373888736251263e-01, -2.0153117396621810e-02,
             -1.8315715574795227e-01, -1.1681340482942786e-01,
             -5.9384595257361818e-02, -2.4487092373098648e-02,
             -2.6413210364682343e-02, -1.7411364541094355e-02,
             -3.1845458722771004e-03, -3.2602940938404401e-01 ]
         index: [ 0, 1, 2, 3, 4, 5, 6, 7, 8, 9, 10, 11, 12, 13, 14, 15,
             16, 17, 18, 19, 20, 21, 22, 23, 24, 25, 26, 27, 28, 29 ]
