%YAML:1.0
---
opencv_ml_svm:
   format: 3
   svmType: C_SVC
   kernel:
      type: POLY
      degree: 3.
      gamma: 1.
      coef0: 0.
   C: 100.
   term_criteria: { iterations:10000000 }
   var_count: 4
   class_count: 2
   class_labels: !!opencv-matrix
      rows: 2
      cols: 1
      dt: i
      data: [ 1, 2 ]
   sv_total: 24
   support_vectors:
      - [ 1.91393435e+00, 9.99967861e+00, 1.98452881e+02, 7.86508484e+01 ]
      - [ 2.22856855e+00, 1.15368402e+00, 1.84550354e+02, 1.93659698e+02 ]
      - [ 4.36412191e+00, 1.66036797e+00, 1.96819305e+02, 1.32382339e+02 ]
      - [ 1.92501831e+00, 6.70095682e+00, 1.97228134e+02, 2.60111633e+02 ]
      - [ 1.91151071e+00, 1.52320278e+00, 1.93999588e+02, 6.03088379e-01 ]
      - [ 1.91310048e+00, 7.61432552e+00, 1.65265930e+02, 2.87753906e+01 ]
      - [ 6.20797586e+00, 3.42219090e+00, 1.94797287e+02, 2.66339966e+02 ]
      - [ 2.21494865e+00, 6.08733475e-01, 1.85931412e+02, 2.05495483e+02 ]
      - [ 5.66599512e+00, 2.08710670e+00, 1.95894180e+02, 1.36654678e+02 ]
      - [ 1.93735313e+00, 9.62201118e+00, 1.95752350e+02, 2.54332581e+02 ]
      - [ 4.06150103e+00, 1.01207619e+01, 1.57336411e+02, 3.74641724e+01 ]
      - [ 2.13790894e+00, 8.09067845e-01, 1.87644043e+02, 2.09720596e+02 ]
      - [ 5.52054358e+00, 2.04847121e+00, 1.95894669e+02, 1.36964127e+02 ]
      - [ 1.90583956e+00, 1.07217073e+01, 1.96008041e+02, 2.60141724e+02 ]
      - [ 5.04276657e+00, 1.13206453e+01, 1.95290619e+02, 7.70422668e+01 ]
      - [ 8.33716583e+00, 3.19620800e+00, 1.93386688e+02, 2.87968903e+02 ]
      - [ 4.14149570e+00, 4.11391544e+00, 1.94697098e+02, 2.44469177e+02 ]
      - [ 2.41469789e+00, 9.46155453e+00, 1.97678131e+02, 4.04676514e+01 ]
      - [ 5.02275276e+00, 1.23523760e+01, 7.16298904e+01, 9.85762024e+01 ]
      - [ 3.71901393e+00, 2.54188108e+00, 1.95459518e+02, 2.34553619e+02 ]
      - [ 2.08680773e+00, 4.70744848e+00, 1.94098099e+02, 2.42778809e+02 ]
      - [ 2.96749449e+00, 5.38573074e+00, 1.94503586e+02, 4.43363342e+01 ]
      - [ 2.07424259e+00, 6.62849808e+00, 1.97511993e+02, 8.01294556e+01 ]
      - [ 2.69918299e+00, 1.42292738e+01, 1.87702271e+02, 6.61899719e+01 ]
   decision_functions:
      -
         sv_count: 24
         rho: 3.4503456072403594e+01
         alpha: [ 3.2041956883302170e-09, 5.2514020089363752e-13,
             4.1972454497638281e-10, 5.7104763999626928e-07,
             1.9652774697047501e-07, 4.0097264485191230e-09,
             3.7372103261776564e-11, 1.2120965536345051e-06,
             1.6456864648469104e-13, 1.8466670381292828e-07,
             4.5725147826213135e-10, 5.7604465735484048e-11,
             2.3448205167258579e-09, 3.5060949231624989e-14,
             3.0574718968784583e-07, 1.2456014218154988e-07,
             -1.7231310023568131e-10, -1.1756416833284562e-09,
             -1.3678922166840400e-07, -7.1675352025462448e-07,
             -1.2089599891789256e-06, -5.4117044273457697e-07,
             -1.2225436131758909e-10, -3.4013317778939927e-11 ]
         index: [ 0, 1, 2, 3, 4, 5, 6, 7, 8, 9, 10, 11, 12, 13, 14, 15,
             16, 17, 18, 19, 20, 21, 22, 23 ]
