%YAML:1.0
---
opencv_ml_svm:
   format: 3
   svmType: C_SVC
   kernel:
      type: INTER
      gamma: 1.
   C: 100.
   term_criteria: { iterations:10000000 }
   var_count: 4
   class_count: 2
   class_labels: !!opencv-matrix
      rows: 2
      cols: 1
      dt: i
      data: [ 1, 2 ]
   sv_total: 32
   support_vectors:
      - [ 3.71838236e+00, 2.71744537e+00, 1.88634537e+02, 6.50323486e+00 ]
      - [ 2.60627174e+00, 1.65176926e+01, 1.97961197e+02, 5.41728210e+01 ]
      - [ 8.04893112e+00, 1.10664387e+01, 1.89905014e+02, 9.00238647e+01 ]
      - [ 6.11162329e+00, 1.54350557e+01, 1.86878250e+02, 6.93369141e+01 ]
      - [ 2.12846303e+00, 1.11157637e+01, 1.94190430e+02, 2.33025726e+02 ]
      - [ 1.98004115e+00, 3.10927820e+00, 1.87780334e+02, 1.48855286e+01 ]
      - [ 2.21419740e+00, 9.22934246e+00, 1.95937668e+02, 6.52749329e+01 ]
      - [ 2.71484971e+00, 1.38726797e+01, 1.93599121e+02, 2.47341995e+02 ]
      - [ 2.59860301e+00, 1.14839640e+01, 1.95274338e+02, 2.36366959e+02 ]
      - [ 3.31149912e+00, 4.11433935e+00, 1.89453186e+02, 2.63191376e+02 ]
      - [ 2.22736430e+00, 1.31130886e+01, 1.93659988e+02, 2.43872406e+02 ]
      - [ 2.19970393e+00, 7.83822477e-01, 1.89007782e+02, 1.69379868e+02 ]
      - [ 2.67264819e+00, 3.82941079e+00, 1.97747299e+02, 1.29914795e+02 ]
      - [ 4.11041307e+00, 1.53313894e+01, 1.10739510e+02, 2.33023758e+02 ]
      - [ 1.80344415e+00, 1.22211418e+01, 1.97282379e+02, 5.35251770e+01 ]
      - [ 7.07578135e+00, 1.04578533e+01, 1.45658234e+02, 3.50805969e+01 ]
      - [ 2.55166030e+00, 9.87889886e-01, 1.72078766e+02, 2.26075256e+02 ]
      - [ 2.77891517e+00, 1.37108636e+00, 1.83217499e+02, 2.19794922e+01 ]
      - [ 6.06463194e+00, 2.21809387e+00, 1.71054993e+02, 7.67308960e+01 ]
      - [ 4.14149570e+00, 4.11391544e+00, 1.94697098e+02, 2.44469177e+02 ]
      - [ 2.41469789e+00, 9.46155453e+00, 1.97678131e+02, 4.04676514e+01 ]
      - [ 5.02275276e+00, 1.23523760e+01, 7.16298904e+01, 9.85762024e+01 ]
      - [ 3.71901393e+00, 2.54188108e+00, 1.95459518e+02, 2.34553619e+02 ]
      - [ 2.08680773e+00, 4.70744848e+00, 1.94098099e+02, 2.42778809e+02 ]
      - [ 2.87134194e+00, 8.39403439e+00, 1.92966736e+02, 5.34981079e+01 ]
      - [ 8.86012077e+00, 1.06536026e+01, 1.94044571e+02, 5.88442688e+01 ]
      - [ 2.16263247e+00, 4.04388809e+00, 1.93505035e+02, 2.43625366e+02 ]
      - [ 2.78743434e+00, 1.42344027e+01, 1.88274490e+02, 6.43666992e+01 ]
      - [ 2.43347311e+00, 1.53680468e+00, 1.98322464e+02, 2.39892380e+02 ]
      - [ 2.23316908e+00, 5.34412479e+00, 1.93936600e+02, 2.40630310e+02 ]
      - [ 3.42082834e+00, 9.42354393e+00, 1.91270493e+02, 5.40400391e+01 ]
      - [ 2.38610387e+00, 2.92279506e+00, 1.95078384e+02, 2.42785614e+02 ]
   decision_functions:
      -
         sv_count: 32
         rho: 1.3578021284351383e-01
         alpha: [ 6.2400171533418800e-02, 1.9651568399652325e-01,
             5.2823862886179823e-02, 1.0157934339523231e-01,
             4.3471067671286501e-02, 2.3642027023533456e-02,
             5.1246814761042514e-01, 1.7834402655098808e-02,
             1.0645742245474794e-01, 1.3290598734041342e-01,
             2.8957094584106940e-01, 4.4921110884959890e-02,
             1.0380173527635699e-02, 3.1864995452247288e-02,
             1.6705999997962237e-01, 3.3780213392563416e-02,
             4.8616217123373183e-02, 9.4129513731016287e-02,
             3.5546406670846555e-02, -4.6456184591116445e-02,
             -2.9789227015610142e-01, -6.4985942157721660e-02,
             -1.5995346826944379e-01, -1.0639730483929057e-01,
             -8.4639518574987443e-02, -1.4991984231344635e-01,
             -1.6831958778377126e-01, -6.0438191785304407e-01,
             -1.4065614995258399e-01, -1.0651472678110147e-02,
             -1.0519372313331628e-01, -6.6520310867258167e-02 ]
         index: [ 0, 1, 2, 3, 4, 5, 6, 7, 8, 9, 10, 11, 12, 13, 14, 15,
             16, 17, 18, 19, 20, 21, 22, 23, 24, 25, 26, 27, 28, 29, 30,
             31 ]
