%YAML:1.0
---
opencv_ml_svm:
   format: 3
   svmType: C_SVC
   kernel:
      type: INTER
      gamma: 1.
   C: 100.
   term_criteria: { iterations:10000000 }
   var_count: 4
   class_count: 2
   class_labels: !!opencv-matrix
      rows: 2
      cols: 1
      dt: i
      data: [ 1, 2 ]
   sv_total: 21
   support_vectors:
      - [ 6.95605326e+00, 2.65631890e+00, 1.94971832e+02, 1.31503769e+02 ]
      - [ 6.72357702e+00, 9.39271164e+00, 1.60417664e+02, 2.34041626e+02 ]
      - [ 8.19082832e+00, 3.10198975e+00, 1.93764816e+02, 2.66670197e+02 ]
      - [ 6.63734674e+00, 1.14323015e+01, 1.49950348e+02, 2.30033051e+02 ]
      - [ 7.71370935e+00, 2.68756008e+00, 1.89526505e+02, 2.11590393e+02 ]
      - [ 6.29297972e+00, 5.37930870e+00, 1.87072906e+02, 2.45680542e+01 ]
      - [ 6.03119993e+00, 1.84300289e+01, 1.95181213e+02, 2.38941559e+02 ]
      - [ 1.05433111e+01, 4.68260908e+00, 1.91995270e+02, 2.79221832e+02 ]
      - [ 6.21347237e+00, 8.42749882e+00, 1.83252365e+02, 4.60853271e+01 ]
      - [ 6.12390614e+00, 7.10132885e+00, 1.96008392e+02, 5.33100586e+01 ]
      - [ 1.37655487e+01, 1.24132385e+01, 1.89968719e+02, 2.49981186e+02 ]
      - [ 6.24898481e+00, 3.90416884e+00, 1.92516525e+02, 2.46387207e+02 ]
      - [ 4.25252104e+00, 1.03578320e+01, 1.90039413e+02, 4.94121704e+01 ]
      - [ 6.64528036e+00, 1.38019991e+01, 1.93156021e+02, 6.64552917e+01 ]
      - [ 8.97488213e+00, 6.61806107e+00, 1.87252838e+02, 2.53085876e+02 ]
      - [ 5.52119112e+00, 2.23635626e+00, 1.93930740e+02, 2.30539597e+02 ]
      - [ 7.44819736e+00, 1.16504164e+01, 1.18284256e+02, 1.12985870e+02 ]
      - [ 7.97608519e+00, 1.76170521e+01, 1.10819542e+02, 2.66251923e+02 ]
      - [ 5.10194635e+00, 1.76334057e+01, 1.87818665e+02, 2.70707489e+02 ]
      - [ 1.00239420e+01, 9.01369953e+00, 1.93169586e+02, 2.41556000e+02 ]
      - [ 1.02197151e+01, 1.73704052e+01, 1.29261963e+02, 6.56436462e+01 ]
   decision_functions:
      -
         sv_count: 21
         rho: 1.0879700209791825e+00
         alpha: [ 1.7620487334710704e-02, 1.9820979750497951e-02,
             3.2777187865716362e-01, 1.0090598727606724e-01,
             7.8140789913302283e-02, 2.7141674115822190e-02,
             4.2597070098891088e-01, 1.3341058231226816e-01,
             1.8546406150346970e-01, -1.8662327069153098e-01,
             -7.7421965001110071e-03, -1.0796231521297331e-01,
             -1.9432869729138800e-02, -2.1562219795039559e-02,
             -4.0704547838418342e-02, -2.9452821281844366e-01,
             -2.1386113410809386e-03, -8.0114882429415793e-02,
             -2.9991255883732848e-01, -2.5045439256797558e-01,
             -5.0710640907560963e-03 ]
         index: [ 0, 1, 2, 3, 4, 5, 6, 7, 8, 9, 10, 11, 12, 13, 14, 15,
             16, 17, 18, 19, 20 ]
