%YAML:1.0
---
opencv_ml_svm:
   format: 3
   svmType: C_SVC
   kernel:
      type: INTER
      gamma: 1.
   C: 100.
   term_criteria: { iterations:10000000 }
   var_count: 4
   class_count: 2
   class_labels: !!opencv-matrix
      rows: 2
      cols: 1
      dt: i
      data: [ 1, 2 ]
   sv_total: 39
   support_vectors:
      - [ 9.67474365e+00, 3.11655045e+01, 1.70792099e+02, 6.27563171e+01 ]
      - [ 9.97856140e+00, 3.62402687e+01, 1.65586899e+02, 6.84764404e+01 ]
      - [ 2.69902992e+00, 2.43197765e+01, 1.29234711e+02, 2.55642960e+02 ]
      - [ 2.59706283e+00, 2.77390499e+01, 8.99342957e+01, 4.61928711e+01 ]
      - [ 2.72769260e+00, 3.10352917e+01, 7.29880981e+01, 2.30780609e+02 ]
      - [ 4.85963726e+00, 3.48838768e+01, 7.90092926e+01, 1.12656067e+02 ]
      - [ 2.75505924e+00, 3.82837410e+01, 1.70484818e+02, 3.28266907e+01 ]
      - [ 2.57325077e+00, 3.98637238e+01, 1.33297821e+02, 5.12101746e+01 ]
      - [ 1.92303371e+00, 3.83837624e+01, 8.32840118e+01, 2.21208023e+02 ]
      - [ 2.67159986e+00, 3.76998940e+01, 1.70995468e+02, 1.84101563e+01 ]
      - [ 5.99965811e+00, 3.65301590e+01, 9.39072189e+01, 1.29610596e+01 ]
      - [ 3.15476036e+00, 3.54189835e+01, 1.40831314e+02, 4.72539978e+01 ]
      - [ 3.13701272e+00, 2.44663258e+01, 1.42485123e+02, 2.46518082e+02 ]
      - [ 2.36378074e+00, 3.32898979e+01, 1.77301514e+02, 6.76999512e+01 ]
      - [ 5.60280943e+00, 3.48152161e+01, 9.50012970e+01, 1.79600830e+01 ]
      - [ 2.07797289e+00, 2.89813366e+01, 1.69044693e+02, 2.04739502e+02 ]
      - [ 6.80720234e+00, 3.72443733e+01, 1.76906616e+02, 2.69958496e+00 ]
      - [ 2.06393838e+00, 3.50186844e+01, 1.72759338e+02, 1.53042908e+01 ]
      - [ 1.83172512e+00, 3.35883484e+01, 1.11455360e+02, 2.70237427e+01 ]
      - [ 2.45749950e+00, 2.74153194e+01, 1.82244293e+02, 3.09348328e+02 ]
      - [ 2.60565853e+00, 3.09061527e+01, 1.63067200e+02, 3.07481720e+02 ]
      - [ 2.34134030e+00, 2.83295078e+01, 6.93584824e+01, 6.81991272e+01 ]
      - [ 2.36854267e+00, 3.55292282e+01, 1.73675735e+02, 6.85267334e+01 ]
      - [ 2.04426479e+00, 3.42794762e+01, 7.37109299e+01, 1.70276154e+02 ]
      - [ 1.82590520e+00, 3.63640556e+01, 9.65978699e+01, 1.93158569e+01 ]
      - [ 1.95048261e+00, 3.90379143e+01, 7.66066513e+01, 1.71029358e+01 ]
      - [ 2.70814705e+00, 2.92992516e+01, 1.77023132e+02, 3.13354492e-01 ]
      - [ 2.21060371e+00, 3.89833641e+01, 1.34972076e+02, 2.87496338e+02 ]
      - [ 2.18005157e+00, 2.81585312e+01, 9.49185715e+01, 2.28914581e+02 ]
      - [ 7.79761267e+00, 3.46793518e+01, 9.08526230e+01, 2.23786575e+02 ]
      - [ 2.11753964e+00, 3.45161858e+01, 1.64237396e+02, 7.91024475e+01 ]
      - [ 5.59002781e+00, 3.47374573e+01, 7.97221985e+01, 8.44974976e+01 ]
      - [ 5.14245510e+00, 3.92406769e+01, 7.39810104e+01, 1.86657867e+02 ]
      - [ 8.15715981e+00, 2.13805962e+01, 6.31680489e+01, 2.07170410e+01 ]
      - [ 2.74369502e+00, 2.36053600e+01, 5.67757683e+01, 2.96461487e+01 ]
      - [ 1.97797585e+00, 2.54222965e+01, 8.62743378e+01, 2.59457550e+02 ]
      - [ 2.36734247e+00, 3.86548424e+01, 1.35417847e+02, 3.18614014e+02 ]
      - [ 2.47801471e+00, 3.02864838e+01, 1.70917526e+02, 2.48159027e+02 ]
      - [ 2.99923110e+00, 3.11008911e+01, 1.70539597e+02, 4.76527100e+01 ]
   decision_functions:
      -
         sv_count: 39
         rho: 4.1434445889377871e+00
         alpha: [ 1.7668645229964516e-01, 1.1660766218837192e-01,
             1.2015880248326455e-01, 6.2588753858764756e-01,
             5.6126797794872918e-01, 1.0386679596551258e-01,
             1.4326913034539723e-01, 1.0806144640655557e-01,
             4.2452354876679760e-01, 2.2029630103939013e-01,
             5.5535986894361289e-02, 4.3637671161758554e-02,
             3.3467571714074502e-02, 4.0505239473939963e-01,
             4.6398334995663448e-01, 1.5589641317715372e-01,
             2.8799583912857829e-01, 3.4775670631580430e-01,
             2.5137001981438482e-02, 4.4632650193174299e-02,
             1.6467850529062572e-01, -1.1674837352094227e-02,
             -5.3364160634511004e-01, -8.2101576730186383e-03,
             -3.4105652051431412e-01, -5.5429589450700301e-01,
             -4.3780482754937133e-01, -7.5435714972987608e-02,
             -3.4247776927444545e-01, -6.0570560401875739e-01,
             -1.1341972162146473e-01, -7.3771520179204478e-02,
             -1.2638389501506236e-01, -9.4351806452733791e-02,
             -6.2501653362063814e-02, -1.1014867773623392e-01,
             -1.4571256058329365e-01, -1.1298306586525825e-01,
             -8.7882391356190048e-01 ]
         index: [ 0, 1, 2, 3, 4, 5, 6, 7, 8, 9, 10, 11, 12, 13, 14, 15,
             16, 17, 18, 19, 20, 21, 22, 23, 24, 25, 26, 27, 28, 29, 30,
             31, 32, 33, 34, 35, 36, 37, 38 ]
