%YAML:1.0
---
opencv_ml_svm:
   format: 3
   svmType: C_SVC
   kernel:
      type: INTER
      gamma: 1.
   C: 100.
   term_criteria: { iterations:10000000 }
   var_count: 4
   class_count: 2
   class_labels: !!opencv-matrix
      rows: 2
      cols: 1
      dt: i
      data: [ 1, 2 ]
   sv_total: 40
   support_vectors:
      - [ 8.90315723e+00, 3.77658997e+01, 1.16288162e+02, 1.11230255e+02 ]
      - [ 1.01158819e+01, 2.04637604e+01, 1.60517853e+02, 2.71974304e+02 ]
      - [ 8.82626915e+00, 2.05765228e+01, 1.68088516e+02, 1.81760864e+01 ]
      - [ 7.98513937e+00, 3.75401840e+01, 1.25166817e+02, 7.49603882e+01 ]
      - [ 8.45416832e+00, 2.72305870e+01, 1.52492935e+02, 2.61033905e+02 ]
      - [ 1.09589376e+01, 3.59351883e+01, 1.27432961e+02, 1.05406525e+02 ]
      - [ 9.92247963e+00, 2.04517784e+01, 1.65242859e+02, 3.03177979e+02 ]
      - [ 1.09433584e+01, 2.69053516e+01, 1.40468674e+02, 6.58864746e+01 ]
      - [ 9.93208313e+00, 3.45014801e+01, 1.24802994e+02, 7.94758911e+01 ]
      - [ 5.00109100e+01, 2.19633217e+01, 1.67218018e+02, 2.52689911e+02 ]
      - [ 7.65180588e+00, 3.29063950e+01, 1.82794495e+02, 5.78522949e+01 ]
      - [ 6.27236271e+00, 2.08435230e+01, 1.96050354e+02, 6.99926758e+01 ]
      - [ 6.35088301e+00, 3.66714134e+01, 1.16756180e+02, 1.00493683e+02 ]
      - [ 8.20655727e+00, 3.02243900e+01, 1.24614906e+02, 5.52200623e+01 ]
      - [ 7.12143469e+00, 3.54092903e+01, 1.47700180e+02, 2.19468307e+02 ]
      - [ 6.16362047e+00, 3.22678146e+01, 1.81919479e+02, 6.64590454e+01 ]
      - [ 1.18568525e+01, 3.23370514e+01, 1.18110321e+02, 5.87180786e+01 ]
      - [ 6.32582092e+00, 2.27788601e+01, 1.94034775e+02, 6.01305847e+01 ]
      - [ 5.27873755e+00, 2.45732422e+01, 1.70087936e+02, 1.32927643e+02 ]
      - [ 1.17423906e+01, 2.64730625e+01, 1.65811508e+02, 1.02854309e+02 ]
      - [ 8.58546066e+00, 2.94246559e+01, 1.61665604e+02, 3.17452393e+01 ]
      - [ 4.69966984e+00, 3.82630844e+01, 1.12909683e+02, 3.39666870e+02 ]
      - [ 8.46724510e+00, 3.57461014e+01, 1.27294083e+02, 1.34244827e+02 ]
      - [ 1.68764153e+01, 2.06877632e+01, 1.84381363e+02, 6.94536438e+01 ]
      - [ 9.92058754e+00, 3.91777420e+01, 1.62823547e+02, 1.36046982e+02 ]
      - [ 1.01523056e+01, 3.04114933e+01, 7.63619690e+01, 1.11518387e+02 ]
      - [ 4.32203436e+00, 3.37869339e+01, 1.60815338e+02, 2.47163818e+02 ]
      - [ 1.17853899e+01, 3.63691063e+01, 1.36340469e+02, 1.19314804e+02 ]
      - [ 5.21007872e+00, 3.18221111e+01, 1.73415756e+02, 6.30061646e+01 ]
      - [ 6.01444483e+00, 2.39747047e+01, 1.80144638e+02, 6.23518066e+01 ]
      - [ 5.07395267e+00, 3.00322227e+01, 1.15726921e+02, 2.26245560e+02 ]
      - [ 8.32723618e+00, 2.61413746e+01, 1.18277786e+02, 3.57658905e+02 ]
      - [ 6.47122335e+00, 3.78374748e+01, 1.70129745e+02, 6.62557678e+01 ]
      - [ 5.59066916e+00, 2.02623959e+01, 1.02227432e+02, 7.80427551e+01 ]
      - [ 5.91608143e+00, 2.49453888e+01, 1.92153000e+02, 7.02067261e+01 ]
      - [ 9.84735394e+00, 3.01635571e+01, 1.66155426e+02, 2.72569641e+02 ]
      - [ 5.22716236e+00, 3.46280670e+01, 1.81572556e+02, 3.09056610e+02 ]
      - [ 1.45146360e+01, 2.41988430e+01, 1.67744583e+02, 1.00531586e+02 ]
      - [ 8.39837360e+00, 3.81105042e+01, 1.82114777e+02, 5.84227600e+01 ]
      - [ 5.73246336e+00, 2.72246723e+01, 1.71426437e+02, 5.57045288e+01 ]
   decision_functions:
      -
         sv_count: 40
         rho: 5.2284841581671826e-01
         alpha: [ 8.1068246525926355e-02, 1.5577749324922149e-01,
             7.0385624468682418e-04, 3.5591960396247863e-01,
             6.7770801036208361e-02, 2.0426218598181958e-01,
             1.3666095609274165e-01, 1.0437192995939730e-01,
             7.9774548962088479e-02, 8.6499780153743627e-02,
             3.0638949155801537e-01, 1.1658690997196013e-01,
             1.2828728077551149e-01, 7.4044211579201519e-02,
             1.6691424951278541e-01, 6.0550467603734892e-01,
             8.3529424518144935e-02, 2.4264869692291366e-01,
             7.9426253076266318e-01, 1.4724389743199537e-01,
             3.4739993146231385e-02, 2.1698080052587987e-01,
             -6.5395281420309603e-01, -8.5356670176537627e-02,
             -7.6717904591447478e-02, -6.3355800699397957e-03,
             -1.3932432448971654e-01, -2.1366874431401925e-01,
             -1.4587224427680170e-01, -3.2807399011440036e-01,
             -1.7156233611470617e-01, -1.5816749255295826e-01,
             -3.4063979867044858e-01, -2.3724850399366784e-01,
             -4.2731909257577899e-01, -1.9416870678801437e-01,
             -1.7076403165145887e-01, -3.7689123360175109e-01,
             -2.1250397234220428e-01, -2.5137412438401907e-01 ]
         index: [ 0, 1, 2, 3, 4, 5, 6, 7, 8, 9, 10, 11, 12, 13, 14, 15,
             16, 17, 18, 19, 20, 21, 22, 23, 24, 25, 26, 27, 28, 29, 30,
             31, 32, 33, 34, 35, 36, 37, 38, 39 ]
