%YAML:1.0
---
opencv_ml_svm:
   format: 3
   svmType: C_SVC
   kernel:
      type: POLY
      degree: 3.
      gamma: 1.
      coef0: 0.
   C: 100.
   term_criteria: { iterations:10000000 }
   var_count: 4
   class_count: 2
   class_labels: !!opencv-matrix
      rows: 2
      cols: 1
      dt: i
      data: [ 1, 2 ]
   sv_total: 9
   support_vectors:
      - [ 4.33389568e+00, 2.57622204e+01, 1.36024124e+02, 3.30964661e+01 ]
      - [ 4.90572929e+00, 3.13061924e+01, 1.49496582e+02, 3.32758240e+02 ]
      - [ 5.57061481e+00, 3.64247017e+01, 1.16184059e+02, 1.18379059e+02 ]
      - [ 3.87800980e+00, 2.43334637e+01, 1.39922043e+02, 8.64520264e+01 ]
      - [ 5.55975533e+00, 2.15577793e+01, 7.49375763e+01, 8.55897522e+01 ]
      - [ 2.63444829e+00, 2.92991829e+01, 1.77056366e+02, 3.16270142e+01 ]
      - [ 5.82624149e+00, 2.93137856e+01, 1.08923767e+02, 6.29994812e+01 ]
      - [ 4.87254238e+00, 3.92717056e+01, 7.53198547e+01, 2.50564270e+02 ]
      - [ 2.47801471e+00, 3.02864838e+01, 1.70917526e+02, 2.48159027e+02 ]
   decision_functions:
      -
         sv_count: 9
         rho: 6.2266742942177382e+00
         alpha: [ 4.4862117692553362e-09, 8.4798695927607147e-11,
             1.3781884487805841e-09, 5.0696671361775814e-10,
             -3.1666851726948841e-10, -1.5078311429078030e-09,
             -4.3353126953681344e-09, -1.0194128645971311e-10,
             -1.9441198557562253e-10 ]
         index: [ 0, 1, 2, 3, 4, 5, 6, 7, 8 ]
