%YAML:1.0
---
opencv_ml_svm:
   format: 3
   svmType: C_SVC
   kernel:
      type: INTER
      gamma: 1.
   C: 100.
   term_criteria: { iterations:10000000 }
   var_count: 4
   class_count: 2
   class_labels: !!opencv-matrix
      rows: 2
      cols: 1
      dt: i
      data: [ 1, 2 ]
   sv_total: 38
   support_vectors:
      - [ 5.17822504e+00, 3.01760750e+01, 1.24257217e+02, 2.60761719e+01 ]
      - [ 5.17822504e+00, 3.01760750e+01, 1.24257217e+02, 2.30411255e+02 ]
      - [ 7.99845076e+00, 2.83134995e+01, 1.51447159e+02, 3.21130737e+02 ]
      - [ 7.99845076e+00, 2.83134995e+01, 1.51447159e+02, 3.59412506e+02 ]
      - [ 8.79896164e+00, 2.83187695e+01, 1.58285156e+02, 7.43989258e+01 ]
      - [ 3.67072344e+00, 2.62480164e+01, 1.96032761e+02, 7.54536438e+01 ]
      - [ 8.00433254e+00, 3.22927895e+01, 1.59669312e+02, 2.78603088e+02 ]
      - [ 8.00433254e+00, 3.22927895e+01, 1.59669312e+02, 3.02137024e+02 ]
      - [ 1.00035629e+01, 2.50494766e+01, 1.45570786e+02, 2.62667297e+02 ]
      - [ 2.07452655e+00, 2.58252144e+01, 1.40971176e+02, 8.56661987e+00 ]
      - [ 3.63414383e+00, 3.42727852e+01, 1.26819267e+02, 9.22961731e+01 ]
      - [ 8.36848259e+00, 3.17035408e+01, 1.48568756e+02, 2.65342255e+02 ]
      - [ 3.37540627e+01, 2.24747887e+01, 1.73547562e+02, 6.94309387e+01 ]
      - [ 4.86677742e+00, 3.70653000e+01, 1.21269501e+02, 1.15193542e+02 ]
      - [ 1.23232431e+01, 3.11246719e+01, 1.21475235e+02, 5.63559265e+01 ]
      - [ 1.05149612e+01, 2.64317093e+01, 1.65353897e+02, 2.06619232e+02 ]
      - [ 6.66846228e+00, 2.91893272e+01, 1.61809021e+02, 3.73550415e+01 ]
      - [ 3.30506134e+01, 2.30983372e+01, 1.67807510e+02, 2.44332504e+02 ]
      - [ 4.28896284e+00, 3.70390854e+01, 1.15779625e+02, 1.00346588e+02 ]
      - [ 7.18938828e+00, 2.19009399e+01, 1.88938812e+02, 5.91707764e+01 ]
      - [ 3.68538523e+00, 3.26144028e+01, 1.61434753e+02, 5.88612061e+01 ]
      - [ 3.68538523e+00, 3.26144028e+01, 1.61434753e+02, 2.39951935e+02 ]
      - [ 7.50405979e+00, 3.02368793e+01, 9.64684067e+01, 1.14107040e+02 ]
      - [ 1.52499485e+01, 3.35158348e+01, 9.62054367e+01, 2.18176697e+02 ]
      - [ 1.09429111e+01, 3.20711899e+01, 1.74251083e+02, 6.46399231e+01 ]
      - [ 4.39535570e+00, 3.01728802e+01, 1.20097420e+02, 7.27239075e+01 ]
      - [ 6.80181122e+00, 3.78647423e+01, 1.58985794e+02, 1.44636856e+02 ]
      - [ 9.04790592e+00, 2.62362881e+01, 1.18836586e+02, 8.58225403e+01 ]
      - [ 3.57907224e+00, 2.94701958e+01, 1.67162125e+02, 2.80990417e+02 ]
      - [ 5.94643211e+00, 2.55388851e+01, 1.21726448e+02, 3.58003387e+02 ]
      - [ 8.74431801e+00, 2.58166962e+01, 1.55746964e+02, 2.62060913e+02 ]
      - [ 1.55869923e+01, 3.89315376e+01, 1.79798950e+02, 3.00133087e+02 ]
      - [ 2.14024258e+00, 2.76834507e+01, 1.67912766e+02, 8.09649658e+00 ]
      - [ 6.32449055e+00, 3.72138863e+01, 1.82192383e+02, 5.50780640e+01 ]
      - [ 3.21193576e+00, 2.58349037e+01, 1.72869995e+02, 3.16708984e+01 ]
      - [ 9.26270390e+00, 2.31185608e+01, 1.75192612e+02, 6.00671082e+01 ]
      - [ 3.50468040e+00, 2.50259781e+01, 1.25178200e+02, 3.26615051e+02 ]
      - [ 6.55054426e+00, 2.79013023e+01, 1.32254150e+02, 6.71041565e+01 ]
   decision_functions:
      -
         sv_count: 38
         rho: 2.2032357272836682e+00
         alpha: [ 7.9597986176163059e-03, 1.2113901039566169e-01,
             1.1230536552197138e-02, 7.7772073035877340e-02,
             2.1446733946098279e-01, 9.6128737152107666e-02,
             1.0320353176015294e-01, 1.6472431218002576e-01,
             1.5388963522021468e-01, 7.9903390031812058e-02,
             8.2012121716510455e-02, 6.4722504602231171e-03,
             7.2466497571365807e-02, 1.2776048359675266e-01,
             1.8890919008150259e-01, 5.2992094192213825e-02,
             1.0886202041825813e-01, 1.2244490884311610e-02,
             1.6283534834821367e-01, 1.3790249807123214e-01,
             -2.0065825784309363e-01, -1.0385382233378253e-01,
             -9.3632978635876080e-02, -1.0907465642869167e-02,
             -3.6864905509809608e-02, -1.8067299365468834e-01,
             -1.1654493449023627e-01, -2.4316784260033492e-01,
             -1.7714991098554383e-02, -7.4040343759062183e-02,
             -2.7231993655138959e-01, -1.4517928566226143e-01,
             -9.4896737677392221e-02, -8.6153619235522894e-02,
             -3.7903074445232596e-02, -3.9229541295324563e-02,
             -4.5072401363522668e-02, -1.8406222794827989e-01 ]
         index: [ 0, 1, 2, 3, 4, 5, 6, 7, 8, 9, 10, 11, 12, 13, 14, 15,
             16, 17, 18, 19, 20, 21, 22, 23, 24, 25, 26, 27, 28, 29, 30,
             31, 32, 33, 34, 35, 36, 37 ]
