%YAML:1.0
---
opencv_ml_svm:
   format: 3
   svmType: C_SVC
   kernel:
      type: INTER
      gamma: 1.
   C: 100.
   term_criteria: { iterations:10000000 }
   var_count: 4
   class_count: 2
   class_labels: !!opencv-matrix
      rows: 2
      cols: 1
      dt: i
      data: [ 1, 2 ]
   sv_total: 47
   support_vectors:
      - [ 2.66528702e+00, 5.55337296e+01, 7.92024918e+01, 4.60740356e+01 ]
      - [ 3.14434099e+00, 4.42126160e+01, 1.24563751e+02, 5.49301758e+01 ]
      - [ 4.38503838e+00, 4.46000557e+01, 1.42493988e+02, 1.82894897e+01 ]
      - [ 5.49869967e+00, 4.07934799e+01, 1.61647552e+02, 7.05816040e+01 ]
      - [ 9.98891544e+00, 4.57194061e+01, 1.58106567e+02, 6.79057312e+01 ]
      - [ 5.61499548e+00, 4.79595451e+01, 1.38060547e+02, 2.50350037e+02 ]
      - [ 5.82851219e+00, 5.42982101e+01, 1.45458008e+02, 6.90765686e+01 ]
      - [ 2.05984545e+00, 5.36184082e+01, 9.85359573e+01, 8.95972900e+01 ]
      - [ 4.23751688e+00, 5.84629288e+01, 7.50037003e+01, 2.40284424e+01 ]
      - [ 2.06487703e+00, 5.86809540e+01, 1.50994202e+02, 5.25831909e+01 ]
      - [ 3.70221519e+00, 5.56610565e+01, 1.51065460e+02, 1.72849869e+02 ]
      - [ 2.00810719e+00, 5.87823257e+01, 1.38547272e+02, 2.69600952e+02 ]
      - [ 1.85099542e+00, 5.71285934e+01, 1.02985870e+02, 1.42568787e+02 ]
      - [ 2.17355561e+00, 5.15278664e+01, 1.57625702e+02, 2.38944489e+02 ]
      - [ 3.19725871e+00, 5.30783691e+01, 1.95194992e+02, 6.38706665e+01 ]
      - [ 4.82156324e+00, 4.36730537e+01, 1.46816010e+02, 8.33209229e+00 ]
      - [ 2.34648538e+00, 5.80149269e+01, 7.72568817e+01, 2.12756958e+01 ]
      - [ 1.94668603e+00, 5.19662476e+01, 1.97766769e+02, 2.56971863e+02 ]
      - [ 2.52620578e+00, 4.03473816e+01, 1.20239662e+02, 5.00475464e+01 ]
      - [ 5.02441311e+00, 5.72163925e+01, 1.49445313e+02, 1.57197037e+02 ]
      - [ 7.79416895e+00, 4.08808289e+01, 1.08714470e+02, 1.22306946e+02 ]
      - [ 8.24613571e+00, 4.52108536e+01, 6.79949493e+01, 1.20792328e+02 ]
      - [ 2.98784471e+00, 5.59152679e+01, 1.52436325e+02, 2.29379333e+02 ]
      - [ 2.46723938e+00, 4.79752312e+01, 1.26867256e+02, 2.14474152e+02 ]
      - [ 2.16203737e+00, 5.07889671e+01, 1.54552963e+02, 1.93067444e+02 ]
      - [ 3.10600209e+00, 4.37877464e+01, 1.35253052e+02, 2.84471954e+02 ]
      - [ 4.15019512e+00, 5.78318367e+01, 1.17165413e+02, 2.61001221e+02 ]
      - [ 2.22747183e+00, 5.83719749e+01, 1.36580978e+02, 8.53560791e+01 ]
      - [ 2.85524321e+00, 5.06895676e+01, 1.43648987e+02, 6.00618591e+01 ]
      - [ 4.28009844e+00, 4.14939804e+01, 1.52811478e+02, 1.56070038e+02 ]
      - [ 2.54276419e+00, 4.85357094e+01, 1.57506012e+02, 2.66596680e+02 ]
      - [ 2.00123477e+00, 5.02681427e+01, 1.66451065e+02, 1.22427765e+02 ]
      - [ 3.31415343e+00, 5.92024231e+01, 7.77318497e+01, 4.90159912e+01 ]
      - [ 4.42839479e+00, 5.35044594e+01, 1.57302628e+02, 1.02672913e+02 ]
      - [ 2.62861061e+00, 5.94474907e+01, 1.51404465e+02, 1.87954651e+02 ]
      - [ 2.24359131e+00, 4.21615944e+01, 1.55771957e+02, 5.80827026e+01 ]
      - [ 6.28353596e+00, 4.31613922e+01, 7.11127472e+01, 2.56165649e+02 ]
      - [ 2.92505240e+00, 4.70510368e+01, 2.10019588e+01, 6.30587769e+00 ]
      - [ 1.97610056e+00, 5.63549042e+01, 1.54887462e+00, 2.50013443e+02 ]
      - [ 3.41537142e+00, 4.31281471e+01, 1.39593384e+02, 2.70236145e+02 ]
      - [ 2.16414499e+00, 4.34212723e+01, 1.61152084e+02, 6.86371155e+01 ]
      - [ 2.54273486e+00, 4.91624985e+01, 1.56167801e+02, 5.85222168e+01 ]
      - [ 3.23111606e+00, 5.23836823e+01, 1.40804581e+02, 2.15407028e+02 ]
      - [ 2.76749253e+00, 5.46430244e+01, 1.46439606e+02, 9.32614746e+01 ]
      - [ 4.48480368e+00, 4.75895615e+01, 8.60602951e+01, 6.62352295e+01 ]
      - [ 3.44936180e+00, 5.42562065e+01, 7.87141724e+01, 6.82308350e+01 ]
      - [ 5.10451269e+00, 5.89389877e+01, 1.36478836e+02, 1.20728165e+02 ]
   decision_functions:
      -
         sv_count: 47
         rho: 4.9502318497852821e-01
         alpha: [ 1.8188545524550864e-01, 1.3535317022036417e-01,
             2.6077727635327640e-02, 3.8039162845114105e-01,
             3.2197092069207844e-02, 1.1555248454718341e-01,
             7.0143044258850554e-02, 1.4315227850305051e-01,
             1.5956310692421143e-02, 1.4875200212663803e-01,
             1.0250346342393789e-01, 5.5536822210277781e-01,
             2.4636486686267366e-03, 8.4229113065040162e-02,
             3.1304282209722659e-02, 2.3445154676095929e-02,
             7.7227051282177713e-03, 2.3996034111373056e-02,
             5.5262845917619825e-03, 2.0127221973563125e-01,
             3.7559591750380129e-02, 2.8996017025182869e-01,
             6.6727522813160453e-02, 1.5767926819447731e-01,
             2.5821575558230592e-01, -2.9496843651589364e-02,
             -2.0566428953066940e-01, -1.1870266953182687e-01,
             -6.7364920000666961e-02, -2.1503528598759461e-01,
             -1.6504686460172566e-01, -9.9279764249197766e-02,
             -2.5820819403989370e-01, -2.1075231036922801e-03,
             -2.8339601363591993e-01, -6.1550267365863658e-03,
             -1.5330210304322156e-01, -4.9529245328695494e-02,
             -1.6702311855106933e-03, -2.1184869237476059e-01,
             -2.7961125638393886e-01, -1.6836787889475807e-01,
             -2.7561882386189696e-01, -1.0274682264996747e-01,
             -8.7949786223707235e-02, -6.2618362777024025e-02,
             -2.5371403226219019e-01 ]
         index: [ 0, 1, 2, 3, 4, 5, 6, 7, 8, 9, 10, 11, 12, 13, 14, 15,
             16, 17, 18, 19, 20, 21, 22, 23, 24, 25, 26, 27, 28, 29, 30,
             31, 32, 33, 34, 35, 36, 37, 38, 39, 40, 41, 42, 43, 44, 45,
             46 ]
