%YAML:1.0
---
opencv_ml_svm:
   format: 3
   svmType: C_SVC
   kernel:
      type: INTER
      gamma: 1.
   C: 100.
   term_criteria: { iterations:10000000 }
   var_count: 4
   class_count: 2
   class_labels: !!opencv-matrix
      rows: 2
      cols: 1
      dt: i
      data: [ 1, 2 ]
   sv_total: 34
   support_vectors:
      - [ 1.54626999e+01, 4.85882378e+01, 1.34787247e+02, 3.49624939e+01 ]
      - [ 3.21624637e+00, 5.11251678e+01, 1.08371841e+02, 4.04863586e+01 ]
      - [ 4.99457121e+00, 4.37897530e+01, 1.57603195e+02, 1.02319336e+01 ]
      - [ 4.40810490e+00, 4.53787766e+01, 1.34707550e+02, 5.27416687e+01 ]
      - [ 2.23651600e+00, 5.99040337e+01, 1.48034073e+02, 2.77835358e+02 ]
      - [ 2.16588426e+00, 4.54539680e+01, 1.51081650e+02, 1.42738647e+01 ]
      - [ 6.90120554e+00, 5.80515480e+01, 1.45194489e+02, 2.23968597e+02 ]
      - [ 1.32798605e+01, 5.62234344e+01, 1.03788834e+02, 2.62364502e+01 ]
      - [ 1.31334600e+01, 4.36497421e+01, 1.30601974e+02, 6.33959961e+01 ]
      - [ 2.34358692e+00, 4.64285393e+01, 1.22991295e+02, 9.73760681e+01 ]
      - [ 2.80861044e+00, 5.33172607e+01, 1.06039604e+02, 1.96751404e+02 ]
      - [ 5.12492132e+00, 4.49641418e+01, 1.10367279e+02, 8.28948364e+01 ]
      - [ 2.50278163e+00, 4.98265190e+01, 1.38089645e+02, 8.48983765e+00 ]
      - [ 2.22681093e+00, 5.89846649e+01, 1.16215836e+02, 3.29974670e+01 ]
      - [ 4.80889654e+00, 5.41613960e+01, 9.73466187e+01, 4.36348267e+01 ]
      - [ 4.80889654e+00, 5.41613960e+01, 9.73466187e+01, 2.04734390e+02 ]
      - [ 2.68909764e+00, 5.82380028e+01, 1.36639664e+02, 9.24530029e+00 ]
      - [ 6.74871159e+00, 5.92814636e+01, 1.17926132e+02, 1.61563080e+02 ]
      - [ 5.16881609e+00, 4.04949341e+01, 7.61675797e+01, 1.10360107e+01 ]
      - [ 2.21500993e+00, 4.70278854e+01, 1.51309998e+02, 8.25488281e+00 ]
      - [ 2.67660880e+00, 5.73576698e+01, 1.69288544e+02, 2.01037903e+01 ]
      - [ 1.97904193e+00, 4.01419258e+01, 1.37729141e+02, 3.11833984e+02 ]
      - [ 8.71564484e+00, 4.31549034e+01, 1.45398666e+02, 1.30502655e+02 ]
      - [ 2.57142973e+00, 5.89731750e+01, 1.51699310e+02, 2.05429047e+02 ]
      - [ 4.10238791e+00, 5.18174286e+01, 1.50001053e+02, 2.81889526e+02 ]
      - [ 2.76558661e+00, 4.98930969e+01, 1.56083511e+02, 5.21619263e+01 ]
      - [ 3.16995049e+00, 5.24402657e+01, 1.41269302e+02, 2.27161469e+02 ]
      - [ 3.40790677e+00, 5.39044304e+01, 1.46884705e+02, 9.43621216e+01 ]
      - [ 1.15645294e+01, 4.19347000e+01, 1.50803696e+02, 2.41206116e+02 ]
      - [ 1.66833096e+01, 4.31573563e+01, 1.06222542e+02, 6.95885925e+01 ]
      - [ 6.44077921e+00, 4.86770477e+01, 9.23889847e+01, 3.09054871e+01 ]
      - [ 2.20262599e+00, 4.60314484e+01, 1.57656097e+02, 2.78125885e+02 ]
      - [ 2.07337213e+00, 4.47588196e+01, 1.66829239e+02, 2.78661621e+02 ]
      - [ 3.47443843e+00, 5.36513062e+01, 1.05544357e+02, 3.75860291e+01 ]
   decision_functions:
      -
         sv_count: 34
         rho: 2.4100466442789212e+00
         alpha: [ 1.2237806820354016e-01, 1.5688453123406512e-01,
             4.8357677588953180e-01, 6.1260958246931840e-02,
             6.0928800867679567e-01, 2.7368804047335282e-01,
             2.6287804483206534e-01, 9.3667471942884967e-02,
             2.9932490814056235e-02, 1.7819231673932309e-01,
             2.1064424753028654e-01, 5.1837631870752847e-02,
             5.7727689594524745e-01, 9.8666140868574295e-02,
             1.8451228053365673e-01, 1.0982995826839248e-01,
             -7.7181728411770301e-01, -1.1467714030280683e-01,
             -6.4930243036653082e-02, -4.2565024824966213e-01,
             -5.2382659156914677e-03, -2.2702582544328245e-02,
             -5.6347033314254245e-02, -1.9386416123169534e-01,
             -1.3071265511552205e-01, -6.4434101543261013e-02,
             -2.4674987742340287e-01, -1.1766776574738809e-01,
             -5.9558531717314213e-02, -1.7412071311667798e-01,
             -2.4174154443618998e-01, -3.9770039231587184e-01,
             -2.7281882300535593e-02, -3.8931943922454026e-01 ]
         index: [ 0, 1, 2, 3, 4, 5, 6, 7, 8, 9, 10, 11, 12, 13, 14, 15,
             16, 17, 18, 19, 20, 21, 22, 23, 24, 25, 26, 27, 28, 29, 30,
             31, 32, 33 ]
