%YAML:1.0
---
opencv_ml_svm:
   format: 3
   svmType: C_SVC
   kernel:
      type: INTER
      gamma: 1.
   C: 100.
   term_criteria: { iterations:10000000 }
   var_count: 4
   class_count: 2
   class_labels: !!opencv-matrix
      rows: 2
      cols: 1
      dt: i
      data: [ 1, 2 ]
   sv_total: 31
   support_vectors:
      - [ 4.57371044e+00, 5.96272354e+01, 1.03360909e+02, 2.03508469e+02 ]
      - [ 7.81636143e+00, 5.97505569e+01, 8.07800446e+01, 3.43417664e+01 ]
      - [ 5.41864014e+00, 4.42482529e+01, 1.56252655e+02, 1.18599243e+01 ]
      - [ 4.43935823e+00, 4.50120659e+01, 1.35877151e+02, 2.06948242e+02 ]
      - [ 9.28233814e+00, 5.94384117e+01, 8.30718765e+01, 1.38015747e+01 ]
      - [ 1.14556503e+01, 5.64496498e+01, 1.35765778e+02, 5.10561829e+01 ]
      - [ 1.61644268e+01, 5.13455048e+01, 1.36659912e+02, 4.34117737e+01 ]
      - [ 1.12978401e+01, 4.27478676e+01, 1.53971176e+02, 4.49754028e+01 ]
      - [ 4.91323090e+00, 5.12518730e+01, 1.10378563e+02, 4.65292969e+01 ]
      - [ 8.00669575e+00, 4.35450974e+01, 1.30661850e+02, 1.12429596e+02 ]
      - [ 1.08137226e+01, 4.92087669e+01, 1.34311951e+02, 5.05804749e+01 ]
      - [ 3.80019832e+00, 5.40398560e+01, 1.09310959e+02, 5.92097778e+01 ]
      - [ 9.25482750e+00, 4.71429329e+01, 1.17157303e+02, 7.43342285e+01 ]
      - [ 3.62598467e+00, 4.78442039e+01, 1.33951813e+02, 2.92487183e+01 ]
      - [ 7.63781071e+00, 4.79327736e+01, 1.42853012e+02, 3.95203247e+01 ]
      - [ 1.05608015e+01, 4.73966942e+01, 1.26809731e+02, 4.40382080e+01 ]
      - [ 1.02372351e+01, 5.67913208e+01, 1.34766434e+02, 4.60668640e+01 ]
      - [ 4.37559938e+00, 5.83297462e+01, 1.14464371e+02, 2.62082275e+02 ]
      - [ 6.89766932e+00, 5.14803886e+01, 1.57078079e+02, 1.06666382e+02 ]
      - [ 8.34434032e+00, 4.30665436e+01, 1.34995041e+02, 1.37301559e+02 ]
      - [ 6.48455048e+00, 4.77850647e+01, 1.47821335e+02, 1.14707397e+02 ]
      - [ 9.03440094e+00, 5.31333466e+01, 3.03397579e+01, 4.10036621e+01 ]
      - [ 7.88398075e+00, 4.01713409e+01, 1.63168518e+02, 2.37483170e+02 ]
      - [ 1.20929384e+01, 4.84687653e+01, 1.64567841e+02, 8.12020264e+01 ]
      - [ 1.00394869e+01, 5.52131691e+01, 1.58822952e+02, 6.15672607e+01 ]
      - [ 5.15917873e+00, 5.64784698e+01, 7.60396271e+01, 1.59345093e+01 ]
      - [ 4.94043589e+00, 4.68789253e+01, 9.88643036e+01, 5.39109497e+01 ]
      - [ 9.97513485e+00, 5.37586021e+01, 1.81167542e+02, 2.68554688e-01 ]
      - [ 4.31421900e+00, 4.60615387e+01, 8.24303055e+01, 4.65404053e+01 ]
      - [ 6.72926712e+00, 4.87312698e+01, 9.22160645e+01, 3.61279907e+01 ]
      - [ 6.04737616e+00, 5.57194138e+01, 7.76722488e+01, 5.13300476e+01 ]
   decision_functions:
      -
         sv_count: 31
         rho: 2.1663420755494892e-01
         alpha: [ 5.2398510927587919e-02, 1.8164798283591010e-01,
             1.2630634095845758e-02, 3.2802098335782230e-02,
             1.2483927390196185e-01, 2.9602142473628129e-01,
             4.2752130261114176e-03, 1.2650338864998656e-01,
             1.7655766637457992e-01, 1.3713922121820682e-01,
             1.0198606121366634e-01, 5.9917657915887004e-02,
             1.6765233054589605e-02, 2.5279860330884675e-02,
             9.2320507604063268e-02, 7.3349953941425480e-03,
             -5.6649616801921232e-01, -4.1512509737107295e-02,
             -1.7441655882293197e-02, -8.0504912504900480e-02,
             -7.9342675392916298e-02, -4.5014037058709435e-03,
             -7.0931021870034418e-03, -2.9245460540511324e-02,
             -5.2062441600312800e-02, -1.1630003388466732e-01,
             -1.5895491493768873e-01, -3.2626076386504214e-02,
             -7.7588315330395133e-02, -1.6661883543626083e-01,
             -1.8131224069840985e-02 ]
         index: [ 0, 1, 2, 3, 4, 5, 6, 7, 8, 9, 10, 11, 12, 13, 14, 15,
             16, 17, 18, 19, 20, 21, 22, 23, 24, 25, 26, 27, 28, 29, 30 ]
