%YAML:1.0
---
opencv_ml_svm:
   format: 3
   svmType: C_SVC
   kernel:
      type: POLY
      degree: 3.
      gamma: 1.
      coef0: 0.
   C: 100.
   term_criteria: { iterations:10000000 }
   var_count: 4
   class_count: 2
   class_labels: !!opencv-matrix
      rows: 2
      cols: 1
      dt: i
      data: [ 1, 2 ]
   sv_total: 10
   support_vectors:
      - [ 2.43923020e+00, 5.14593353e+01, 1.07212570e+02, 1.97295914e+02 ]
      - [ 3.46395540e+00, 4.55940666e+01, 1.31672546e+02, 5.28932495e+01 ]
      - [ 2.60920691e+00, 4.61163063e+01, 1.16619736e+02, 5.08751221e+01 ]
      - [ 6.97894526e+00, 5.54877472e+01, 8.51688232e+01, 2.20190125e+01 ]
      - [ 4.15019512e+00, 5.78318367e+01, 1.17165413e+02, 2.61001221e+02 ]
      - [ 2.85524321e+00, 5.06895676e+01, 1.43648987e+02, 6.00618591e+01 ]
      - [ 6.60376740e+00, 4.03089676e+01, 7.58483429e+01, 2.06668396e+01 ]
      - [ 3.20525551e+00, 5.91921768e+01, 8.30528183e+01, 5.37569580e+01 ]
      - [ 4.99716282e+00, 4.47266083e+01, 7.50213089e+01, 8.18092651e+01 ]
      - [ 5.10451269e+00, 5.89389877e+01, 1.36478836e+02, 1.20728165e+02 ]
   decision_functions:
      -
         sv_count: 10
         rho: 3.1291207764536848e+00
         alpha: [ 2.4106591312677727e-09, 8.8732102645003906e-08,
             6.2879052404547654e-08, 2.2428648892260336e-08,
             -8.5227146714168176e-10, -9.3703000351745521e-08,
             -7.4776480145930689e-08, -4.8358395380848922e-09,
             -5.7545598964941937e-10, -1.7074155805348643e-09 ]
         index: [ 0, 1, 2, 3, 4, 5, 6, 7, 8, 9 ]
