%YAML:1.0
---
opencv_ml_svm:
   format: 3
   svmType: C_SVC
   kernel:
      type: POLY
      degree: 3.
      gamma: 1.
      coef0: 0.
   C: 100.
   term_criteria: { iterations:10000000 }
   var_count: 4
   class_count: 2
   class_labels: !!opencv-matrix
      rows: 2
      cols: 1
      dt: i
      data: [ 1, 2 ]
   sv_total: 15
   support_vectors:
      - [ 3.33458638e+00, 6.39133492e+01, 1.23440674e+02, 5.45193787e+01 ]
      - [ 3.15334082e+00, 7.09635620e+01, 1.21251854e+02, 5.63616333e+01 ]
      - [ 1.86388898e+00, 7.40869064e+01, 5.77747002e+01, 2.70373779e+02 ]
      - [ 2.25353742e+00, 6.15446014e+01, 1.37386810e+02, 1.04127808e+01 ]
      - [ 5.16357517e+00, 7.33436890e+01, 1.30481003e+02, 2.41255753e+02 ]
      - [ 6.43019056e+00, 7.52905960e+01, 5.97502937e+01, 2.45926514e+01 ]
      - [ 3.17937422e+00, 7.20223923e+01, 1.10679527e+02, 6.08104248e+01 ]
      - [ 2.04098773e+00, 6.39998932e+01, 1.99020233e+01, 3.51331604e+02 ]
      - [ 1.82802200e+00, 7.65292435e+01, 3.72279510e+01, 1.24093628e+01 ]
      - [ 2.84554958e+00, 6.40383835e+01, 7.08499603e+01, 7.48674927e+01 ]
      - [ 3.32746744e+00, 7.24783478e+01, 1.40653763e+02, 3.11235046e+01 ]
      - [ 7.83026457e+00, 7.25945435e+01, 1.34700470e+02, 2.00003586e+02 ]
      - [ 2.07637405e+00, 6.60641708e+01, 1.36336594e+02, 1.82296463e+02 ]
      - [ 5.35542011e+00, 7.04864044e+01, 1.26068367e+02, 2.50546143e+02 ]
      - [ 1.89119816e+00, 7.76356812e+01, 1.21352203e+02, 1.97222168e+02 ]
   decision_functions:
      -
         sv_count: 15
         rho: -2.0742085136182698e+01
         alpha: [ 1.8652344668918776e-10, 6.3711765181671925e-10,
             6.4054624699810197e-10, 5.6756925225221729e-09,
             7.5236978362309423e-09, 7.8695252666074586e-10,
             1.0980566122142758e-08, -1.2173676011347398e-10,
             -5.0157953542433180e-10, -6.8541058409059709e-09,
             -9.9125565153290878e-09, -1.1183593541402868e-09,
             -4.5140540454186121e-11, -5.3179837236980858e-09,
             -2.5596340829954490e-09 ]
         index: [ 0, 1, 2, 3, 4, 5, 6, 7, 8, 9, 10, 11, 12, 13, 14 ]
