%YAML:1.0
---
opencv_ml_svm:
   format: 3
   svmType: C_SVC
   kernel:
      type: POLY
      degree: 3.
      gamma: 1.
      coef0: 0.
   C: 100.
   term_criteria: { iterations:10000000 }
   var_count: 4
   class_count: 2
   class_labels: !!opencv-matrix
      rows: 2
      cols: 1
      dt: i
      data: [ 1, 2 ]
   sv_total: 22
   support_vectors:
      - [ 2.10912490e+00, 9.80702896e+01, 8.79986954e+01, 1.99399811e+02 ]
      - [ 2.95918274e+00, 8.07035141e+01, 1.35399841e+02, 2.45714417e+02 ]
      - [ 7.95353699e+00, 8.08043060e+01, 1.31177322e+02, 1.06435150e+02 ]
      - [ 3.18584824e+00, 9.39502640e+01, 1.08926521e+02, 1.68254776e+02 ]
      - [ 2.05550265e+00, 8.23979187e+01, 4.65767059e+01, 2.69156006e+02 ]
      - [ 4.83795357e+00, 8.14600296e+01, 1.19096085e+02, 2.39144119e+02 ]
      - [ 5.46815825e+00, 8.61126938e+01, 5.83755150e+01, 1.61327820e+01 ]
      - [ 4.91129589e+00, 9.30135651e+01, 1.16046005e+02, 2.33054077e+02 ]
      - [ 2.33314013e+00, 9.43254242e+01, 9.70111771e+01, 1.71274475e+02 ]
      - [ 4.38635015e+00, 9.21832047e+01, 1.17844383e+02, 2.11838211e+02 ]
      - [ 3.34207010e+00, 9.36135712e+01, 7.43708801e+01, 1.03062256e+02 ]
      - [ 2.44988751e+00, 9.77937088e+01, 8.55226440e+01, 2.95307434e+02 ]
      - [ 8.11363888e+00, 9.78354874e+01, 1.15242805e+02, 3.82789612e+01 ]
      - [ 2.22939181e+00, 8.15263977e+01, 2.61458607e+01, 1.70010284e+02 ]
      - [ 4.18294239e+00, 8.57479858e+01, 4.71538277e+01, 7.49216919e+01 ]
      - [ 7.12510633e+00, 9.17867966e+01, 9.82852783e+01, 3.46439331e+02 ]
      - [ 2.15847564e+00, 9.45713348e+01, 9.15882645e+01, 1.78965530e+02 ]
      - [ 2.47690082e+00, 9.49863434e+01, 8.53672791e+01, 1.66064575e+02 ]
      - [ 2.23570180e+00, 9.54010162e+01, 7.99801483e+01, 1.86907806e+02 ]
      - [ 2.91142845e+00, 9.22211227e+01, 1.17711784e+02, 6.98302002e+01 ]
      - [ 4.34553146e+00, 8.28842392e+01, 1.28575562e+02, 2.61759735e+02 ]
      - [ 4.30552435e+00, 8.02504578e+01, 1.34514755e+02, 3.98455200e+01 ]
   decision_functions:
      -
         sv_count: 22
         rho: -2.9490254500451985e+04
         alpha: [ 2.7839742010244851e-09, 4.6700655781376046e-06,
             2.5414300569031592e-06, 2.1734690886374534e-05,
             1.0773535649017481e-06, 1.4843394548723028e-06,
             9.2773197112810988e-07, 4.2155687622384514e-05,
             4.0220445679311603e-15, -6.0800273060407816e-05,
             -6.0048863011484840e-10, -6.9794081527257050e-07,
             -1.4144991024735874e-06, -1.7410667451975649e-10,
             -2.3630850734142849e-06, -1.5204777424853150e-06,
             -2.2811626476419149e-09, -2.6086679050239251e-10,
             -3.9319432444004367e-06, -6.2645021899817953e-11,
             -3.6163365263417021e-06, -2.4614827836491510e-07 ]
         index: [ 0, 1, 2, 3, 4, 5, 6, 7, 8, 9, 10, 11, 12, 13, 14, 15,
             16, 17, 18, 19, 20, 21 ]
