%YAML:1.0
---
opencv_ml_svm:
   format: 3
   svmType: C_SVC
   kernel:
      type: INTER
      gamma: 1.
   C: 100.
   term_criteria: { iterations:10000000 }
   var_count: 4
   class_count: 2
   class_labels: !!opencv-matrix
      rows: 2
      cols: 1
      dt: i
      data: [ 1, 2 ]
   sv_total: 75
   support_vectors:
      - [ 6.76247501e+00, 9.66060181e+01, 8.86950684e+01, 6.64425659e+00 ]
      - [ 3.28368926e+00, 9.76680756e+01, 9.00159454e+01, 4.97998352e+01 ]
      - [ 9.79111385e+00, 8.25258179e+01, 1.13036865e+02, 6.39373169e+01 ]
      - [ 1.59908285e+01, 8.84894485e+01, 1.06997002e+02, 8.49802856e+01 ]
      - [ 2.79229331e+00, 8.27189713e+01, 1.36212936e+02, 3.68817139e+01 ]
      - [ 4.33697939e+00, 9.95902939e+01, 1.01231140e+02, 5.13482361e+01 ]
      - [ 5.98684692e+00, 9.06893997e+01, 9.51949997e+01, 2.13996582e+01 ]
      - [ 5.67162085e+00, 9.99989853e+01, 1.06609306e+02, 1.46550293e+01 ]
      - [ 3.13418412e+00, 8.11977539e+01, 1.26490311e+02, 5.67638550e+01 ]
      - [ 4.98573256e+00, 8.83602676e+01, 1.25093018e+02, 4.75921936e+01 ]
      - [ 8.03601360e+00, 9.04614944e+01, 1.17925484e+02, 2.37659210e+02 ]
      - [ 3.56384277e+00, 9.56148911e+01, 1.22817886e+02, 5.41390686e+01 ]
      - [ 6.94834614e+00, 9.92277985e+01, 1.11085640e+02, 2.21178970e+02 ]
      - [ 8.33177471e+00, 9.02553787e+01, 9.69184036e+01, 3.04477539e+01 ]
      - [ 2.69806886e+00, 8.08219681e+01, 8.78889465e+01, 2.08190094e+02 ]
      - [ 5.48842583e+01, 8.20965729e+01, 8.15866241e+01, 2.12125427e+02 ]
      - [ 1.04656172e+01, 8.42497101e+01, 5.12725258e+01, 2.16569687e+02 ]
      - [ 3.04592729e+00, 8.71700211e+01, 1.00655663e+02, 4.47644653e+01 ]
      - [ 5.82638311e+00, 9.18550720e+01, 8.26903763e+01, 1.70310059e+01 ]
      - [ 5.09776878e+00, 8.95075607e+01, 9.60368881e+01, 3.42922974e+00 ]
      - [ 4.86336374e+00, 9.42774277e+01, 8.31103821e+01, 1.51895752e+01 ]
      - [ 6.25198126e+00, 9.51037140e+01, 4.39442444e+01, 2.80837708e+01 ]
      - [ 5.65789986e+00, 9.96510696e+01, 7.58620148e+01, 2.34957275e+01 ]
      - [ 8.32545853e+00, 8.05811615e+01, 6.60849762e+01, 2.19247650e+02 ]
      - [ 4.21895885e+00, 8.40962067e+01, 1.11133621e+02, 1.81222778e+02 ]
      - [ 2.73647976e+01, 9.04499512e+01, 8.85955429e+01, 1.85676575e+01 ]
      - [ 7.90136194e+00, 9.11003723e+01, 1.16117783e+02, 5.80398254e+01 ]
      - [ 3.38810086e+00, 9.16863785e+01, 1.13132729e+02, 1.63025421e+02 ]
      - [ 8.22674370e+00, 9.25101395e+01, 5.74777756e+01, 3.09551392e+01 ]
      - [ 2.14020610e+00, 9.68819275e+01, 9.47119980e+01, 2.16983963e+02 ]
      - [ 6.15875959e+00, 8.52487183e+01, 9.21956711e+01, 9.36694336e+00 ]
      - [ 3.46215510e+00, 8.04252777e+01, 1.05509712e+02, 2.49715057e+02 ]
      - [ 7.32892752e+00, 9.19650955e+01, 8.37857895e+01, 1.72491760e+01 ]
      - [ 5.79332542e+00, 9.91888275e+01, 8.30892105e+01, 1.10084534e+01 ]
      - [ 3.44427276e+00, 9.95904922e+01, 8.95530319e+01, 7.97103882e+00 ]
      - [ 6.32368422e+00, 8.84524460e+01, 5.88818245e+01, 3.54755249e+01 ]
      - [ 5.28604126e+00, 8.97020035e+01, 9.48393860e+01, 2.68179321e+01 ]
      - [ 3.92695117e+00, 8.99646149e+01, 9.90549164e+01, 4.98168335e+01 ]
      - [ 6.43056202e+00, 9.69012451e+01, 8.24066925e+01, 2.30131668e+02 ]
      - [ 6.42420673e+00, 8.62209625e+01, 5.20614052e+01, 2.68805237e+01 ]
      - [ 1.04014788e+01, 8.63700714e+01, 1.06564461e+02, 1.03380676e+02 ]
      - [ 4.84220409e+00, 9.16901550e+01, 8.08108597e+01, 2.33854523e+02 ]
      - [ 5.37430525e+00, 8.79111710e+01, 3.36067772e+01, 1.69285278e+01 ]
      - [ 6.04422379e+00, 8.81527710e+01, 4.73513718e+01, 2.52715317e+02 ]
      - [ 3.47108459e+00, 9.23203735e+01, 1.17432381e+02, 2.09474945e+02 ]
      - [ 4.56031466e+00, 9.98969421e+01, 1.08259262e+02, 1.95005798e+01 ]
      - [ 4.51247501e+00, 8.54147263e+01, 4.80420494e+01, 6.53979187e+01 ]
      - [ 5.04418516e+00, 9.19141541e+01, 9.89925842e+01, 1.99180054e+02 ]
      - [ 2.07367849e+00, 9.36585693e+01, 9.23822174e+01, 1.88651947e+02 ]
      - [ 2.22931790e+00, 9.45006943e+01, 5.52018261e+00, 3.58317261e+01 ]
      - [ 3.49064231e+00, 9.77356873e+01, 8.39401016e+01, 2.06816406e+01 ]
      - [ 5.92691040e+00, 9.86006851e+01, 1.17711655e+02, 4.55754395e+01 ]
      - [ 2.13142467e+00, 8.43471832e+01, 1.28896301e+02, 8.05340576e+00 ]
      - [ 3.94621897e+00, 8.09685669e+01, 1.35302124e+02, 2.89055786e+01 ]
      - [ 1.03831215e+01, 9.16054916e+01, 3.96186180e+01, 1.69758911e+01 ]
      - [ 5.61513281e+00, 9.25177841e+01, 5.56444054e+01, 2.43432312e+02 ]
      - [ 6.17996025e+00, 9.28799133e+01, 9.50952072e+01, 2.14834076e+02 ]
      - [ 5.51214886e+00, 9.10796890e+01, 5.34210854e+01, 6.37411804e+01 ]
      - [ 1.17282228e+01, 9.64901352e+01, 9.59500427e+01, 1.52700500e+01 ]
      - [ 6.53769255e+00, 8.35776749e+01, 6.25833969e+01, 1.73071991e+02 ]
      - [ 7.12173414e+00, 9.83224411e+01, 4.71522408e+01, 2.43761093e+02 ]
      - [ 4.59332800e+00, 8.40102463e+01, 8.11222076e+01, 4.23305054e+01 ]
      - [ 5.25305080e+00, 9.22179718e+01, 7.77173920e+01, 4.89207153e+01 ]
      - [ 6.70478010e+00, 9.26035690e+01, 6.58720703e+01, 2.59574890e+01 ]
      - [ 6.14185381e+00, 8.33341522e+01, 9.30962982e+01, 2.03303970e+02 ]
      - [ 2.25078487e+00, 8.39330139e+01, 4.92704849e+01, 2.77971008e+02 ]
      - [ 7.72929621e+00, 8.41722717e+01, 2.44297047e+01, 4.61871338e+00 ]
      - [ 6.93797445e+00, 9.04518814e+01, 8.34367828e+01, 3.00092773e+01 ]
      - [ 6.12005186e+00, 8.14281082e+01, 8.64876938e+01, 1.47676468e+02 ]
      - [ 6.14569569e+00, 8.59719620e+01, 5.72203941e+01, 4.92304077e+01 ]
      - [ 1.17389460e+01, 8.63713455e+01, 9.92477798e+01, 2.90940857e+01 ]
      - [ 6.09307146e+00, 8.94664307e+01, 8.29359665e+01, 2.16673309e+02 ]
      - [ 3.50285983e+00, 8.34608231e+01, 1.32117493e+02, 2.18878311e+02 ]
      - [ 6.00156546e+00, 9.93102264e+01, 9.56359024e+01, 4.33180542e+01 ]
      - [ 1.65229015e+01, 9.99300003e+01, 9.03477936e+01, 2.22733231e+02 ]
   decision_functions:
      -
         sv_count: 75
         rho: 4.6568531868333507e-01
         alpha: [ 3.3206416511710753e-02, 4.1834036011274067e-01,
             1.6553803463408737e-01, 1.6322075446855075e-01,
             3.9251707956915644e-01, 1.0760835674994182e-01,
             6.8044400049002618e-01, 7.9164549499444889e-02,
             2.5816120771597253e-02, 6.0173472145641860e-01,
             1.5385878184543225e-02, 5.0512726365696745e-02,
             8.7656784267244325e-02, 4.4341780574057056e-02,
             1.9747437322662714e-01, 5.2433074994301908e-02,
             7.1076672796625384e-01, 1.0529513253464808e-01,
             4.7366080023407675e-01, 1.4062158855496970e-01,
             4.9272962293031547e-01, 5.0259327921175223e-01,
             5.7752054061445957e-01, 1.4333518958633024e-01,
             2.2383393095798232e-01, 7.8422868289223957e-02,
             9.9506847232861684e-02, 9.3443464837882989e-02,
             5.7983676950114837e-01, 5.5942743821181640e-01,
             2.1693825100004794e-03, 8.3189471459490461e-02,
             6.7245424111981622e-01, 5.7155986184896468e-01,
             4.4812297944498238e-02, 8.0192771601520135e-02,
             4.3818407342152435e-02, 2.6435211386261082e-01,
             2.2495519276908352e-01, 9.5235189615978072e-02,
             2.6984339249425039e-02, 1.4898620368760912e-01,
             -5.1181566579850013e-02, -7.2803055975685954e-02,
             -1.0980977699673153e-01, -7.7948259945299359e-01,
             -1.2320152254001857e-01, -8.1054666845092369e-02,
             -1.8146294072966049e-01, -1.3731266239393497e-02,
             -7.9894989633239910e-01, -2.7415882833551136e-01,
             -5.9698084268663176e-01, -3.7815401397664344e-01,
             -3.8719911838491994e-01, -1.2403291706739178e-01,
             -5.2138186574754175e-01, -3.7209710520799355e-01,
             -9.0140000182393232e-01, -3.5903822960069366e-02,
             -7.0473941510832167e-02, -3.2471016498140209e-01,
             -5.2287872044432948e-01, -3.7882868758853849e-01,
             -7.9548096452350753e-02, -4.0513977222233336e-02,
             -2.4437725511313995e-02, -8.2867659098473034e-01,
             -1.3989033512428733e-01, -5.3991077908383356e-01,
             -1.0714391587496794e-01, -8.7488782650154306e-01,
             -3.3858687125824724e-02, -1.5243034710576167e-01,
             -2.3392308215660601e-01 ]
         index: [ 0, 1, 2, 3, 4, 5, 6, 7, 8, 9, 10, 11, 12, 13, 14, 15,
             16, 17, 18, 19, 20, 21, 22, 23, 24, 25, 26, 27, 28, 29, 30,
             31, 32, 33, 34, 35, 36, 37, 38, 39, 40, 41, 42, 43, 44, 45,
             46, 47, 48, 49, 50, 51, 52, 53, 54, 55, 56, 57, 58, 59, 60,
             61, 62, 63, 64, 65, 66, 67, 68, 69, 70, 71, 72, 73, 74 ]
