%YAML:1.0
---
opencv_ml_svm:
   format: 3
   svmType: C_SVC
   kernel:
      type: INTER
      gamma: 1.
   C: 100.
   term_criteria: { iterations:10000000 }
   var_count: 4
   class_count: 2
   class_labels: !!opencv-matrix
      rows: 2
      cols: 1
      dt: i
      data: [ 1, 2 ]
   sv_total: 103
   support_vectors:
      - [ 4.75051594e+00, 1.11039528e+02, 4.26819572e+01, 4.89213867e+01 ]
      - [ 5.60399580e+00, 1.12166901e+02, 8.56254578e+01, 5.26221313e+01 ]
      - [ 1.16189585e+01, 1.07939178e+02, 9.59772339e+01, 7.23880615e+01 ]
      - [ 2.41240368e+01, 1.10875587e+02, 8.43306885e+01, 6.58786926e+01 ]
      - [ 7.99669123e+00, 1.11070854e+02, 7.49147110e+01, 2.55588898e+02 ]
      - [ 1.20970097e+01, 1.17526405e+02, 7.09636765e+01, 2.51253540e+02 ]
      - [ 4.45875025e+00, 1.00498100e+02, 3.49905281e+01, 1.65222168e+00 ]
      - [ 2.30711031e+00, 1.05516319e+02, 3.84361420e+01, 3.59929230e+02 ]
      - [ 2.06204867e+00, 1.09290543e+02, 1.82815056e+01, 3.24509521e+02 ]
      - [ 3.05174470e+00, 1.02325478e+02, 1.05551636e+02, 5.73917847e+01 ]
      - [ 1.91318643e+00, 1.05365227e+02, 1.02549080e+02, 8.43807983e+00 ]
      - [ 4.03196287e+00, 1.05753662e+02, 1.20072487e+02, 5.07828674e+01 ]
      - [ 2.18005610e+00, 1.09900414e+02, 1.17977608e+02, 5.09715881e+01 ]
      - [ 5.94020033e+00, 1.10257133e+02, 1.04165756e+02, 1.60980225e+01 ]
      - [ 2.22046232e+00, 1.15873413e+02, 1.08171974e+02, 2.49280640e+02 ]
      - [ 2.17599010e+00, 1.10912193e+02, 3.97736664e+01, 8.49212646e+00 ]
      - [ 1.81109452e+00, 1.11782631e+02, 2.35115967e+01, 2.69848572e+02 ]
      - [ 2.91195607e+00, 1.10610710e+02, 1.03872597e+02, 1.65292053e+01 ]
      - [ 4.03230953e+00, 1.10980385e+02, 1.12536682e+02, 6.44002075e+01 ]
      - [ 4.09062576e+00, 1.02300285e+02, 9.20503082e+01, 4.70102844e+01 ]
      - [ 1.46172667e+01, 1.05403976e+02, 3.64881363e+01, 2.03727875e+02 ]
      - [ 3.89627194e+00, 1.06226158e+02, 8.38359070e+01, 2.23832184e+02 ]
      - [ 1.93522167e+00, 1.03085197e+02, 6.52457504e+01, 1.38764252e+02 ]
      - [ 4.44579697e+00, 1.05971657e+02, 5.54584846e+01, 6.68524170e+00 ]
      - [ 4.43940973e+00, 1.12564758e+02, 4.96739311e+01, 4.25267334e+01 ]
      - [ 1.89153290e+00, 1.15272804e+02, 4.86527786e+01, 3.42931549e+02 ]
      - [ 7.41801596e+00, 1.16574936e+02, 3.22947273e+01, 1.07440491e+01 ]
      - [ 4.04525280e+00, 1.09244942e+02, 9.83611450e+01, 4.60553589e+01 ]
      - [ 2.89086390e+00, 1.16706200e+02, 7.10697479e+01, 2.18718430e+02 ]
      - [ 1.94771290e+00, 1.19856895e+02, 8.47679977e+01, 2.16325089e+02 ]
      - [ 5.09794950e+00, 1.11228363e+02, 1.30784073e+01, 1.89441818e+02 ]
      - [ 2.15548539e+00, 1.03274307e+02, 9.99427490e+01, 1.87631073e+02 ]
      - [ 5.05728245e+00, 1.03949112e+02, 8.92382355e+01, 5.66239929e+01 ]
      - [ 5.48739576e+00, 1.08110474e+02, 9.06159363e+01, 1.39866943e+01 ]
      - [ 5.64492178e+00, 1.15834366e+02, 9.08797379e+01, 1.68407593e+01 ]
      - [ 2.09245563e+00, 1.16612732e+02, 8.16577454e+01, 1.24886475e+01 ]
      - [ 1.12854633e+01, 1.18980804e+02, 1.05990280e+02, 6.22345886e+01 ]
      - [ 1.99675655e+00, 1.01153801e+02, 1.08888374e+02, 1.10610962e+00 ]
      - [ 3.76872873e+00, 1.05497330e+02, 1.10062080e+02, 3.22136932e+02 ]
      - [ 3.64093328e+00, 1.00624985e+02, 8.63905029e+01, 7.83386230e+00 ]
      - [ 3.30885005e+00, 1.16671043e+02, 3.70197601e+01, 5.55914307e+00 ]
      - [ 2.72757649e+00, 1.05421059e+02, 1.10251595e+02, 1.56513672e+01 ]
      - [ 2.25609469e+00, 1.06650238e+02, 9.56686172e+01, 2.22465515e+02 ]
      - [ 2.53894734e+00, 1.14219658e+02, 5.72815285e+01, 1.88692398e+02 ]
      - [ 6.15226460e+00, 1.15197639e+02, 9.93311386e+01, 1.92442230e+02 ]
      - [ 3.39328361e+00, 1.03274498e+02, 4.54645958e+01, 2.36204224e+01 ]
      - [ 8.51859188e+00, 1.12001740e+02, 2.90355721e+01, 2.87764282e+01 ]
      - [ 3.44498253e+00, 1.00424294e+02, 9.40043716e+01, 9.85375977e+00 ]
      - [ 5.20877380e+01, 1.01920532e+02, 1.11261116e+02, 2.07628571e+02 ]
      - [ 1.96795332e+00, 1.06784966e+02, 5.90481873e+01, 9.06329346e+00 ]
      - [ 1.55248251e+01, 1.10117287e+02, 1.20296829e+02, 8.03503113e+01 ]
      - [ 6.27446270e+00, 1.12925735e+02, 1.05866005e+02, 2.33144012e+02 ]
      - [ 1.98764265e+00, 1.12159813e+02, 4.21412849e+01, 7.78530273e+01 ]
      - [ 2.23593545e+00, 1.04602234e+02, 4.88930016e+01, 2.26536072e+02 ]
      - [ 2.58412528e+00, 1.14112862e+02, 3.40525742e+01, 3.02814453e+02 ]
      - [ 6.20562696e+00, 1.01271019e+02, 1.05247101e+02, 1.30694763e+02 ]
      - [ 3.05011415e+00, 1.05349739e+02, 9.17811813e+01, 3.09805664e+02 ]
      - [ 1.27597008e+01, 1.10806396e+02, 8.10029221e+01, 1.93356506e+02 ]
      - [ 5.41243267e+00, 1.10952667e+02, 1.04350075e+02, 1.42468262e+00 ]
      - [ 4.16734552e+00, 1.00718712e+02, 3.31619797e+01, 8.10957031e+01 ]
      - [ 2.19195175e+00, 1.03245758e+02, 7.61560745e+01, 1.31874390e+01 ]
      - [ 5.27344751e+00, 1.05030647e+02, 2.23009357e+01, 1.11652222e+01 ]
      - [ 9.32134438e+00, 1.09340240e+02, 9.74248352e+01, 3.49868164e+01 ]
      - [ 1.44818115e+01, 1.09439896e+02, 1.16458874e+01, 4.40916443e+01 ]
      - [ 2.04416656e+00, 1.10887924e+02, 8.66585922e+01, 1.91834641e+02 ]
      - [ 7.98400259e+00, 1.13156334e+02, 5.40171051e+00, 3.22718567e+02 ]
      - [ 2.00775695e+00, 1.16337776e+02, 5.92965050e+01, 1.33869629e+01 ]
      - [ 2.84473562e+00, 1.16525925e+02, 6.50676880e+01, 1.04761963e+01 ]
      - [ 6.11290550e+00, 1.08757057e+02, 1.10190468e+02, 4.02906494e+01 ]
      - [ 2.59378743e+00, 1.10492706e+02, 9.90679474e+01, 2.99529724e+01 ]
      - [ 8.27518845e+00, 1.11687820e+02, 9.65256882e+01, 1.86492325e+02 ]
      - [ 4.78606081e+00, 1.12266174e+02, 1.05039925e+02, 5.10833740e-01 ]
      - [ 6.75944901e+00, 1.13632309e+02, 8.25089798e+01, 3.35900452e+02 ]
      - [ 4.43457174e+00, 1.15645622e+02, 1.05226097e+02, 1.48863144e+02 ]
      - [ 7.77617359e+00, 1.19769348e+02, 1.01401421e+02, 1.51859131e+01 ]
      - [ 5.24697495e+00, 1.02989647e+02, 1.12753937e+02, 2.11410736e+02 ]
      - [ 1.86400640e+00, 1.07925949e+02, 3.87782326e+01, 5.10109253e+01 ]
      - [ 2.02083158e+00, 1.10140305e+02, 1.11335098e+02, 1.66442581e+02 ]
      - [ 5.10067844e+00, 1.12505157e+02, 1.07019409e+02, 2.04369415e+02 ]
      - [ 6.79281569e+00, 1.16391724e+02, 1.08018021e+02, 1.38955063e+02 ]
      - [ 2.02177024e+00, 1.19223541e+02, 1.10223587e+02, 6.39201660e+01 ]
      - [ 4.29132414e+00, 1.00549644e+02, 9.73535843e+01, 3.78784180e-01 ]
      - [ 4.01019430e+00, 1.01254379e+02, 1.14407249e+02, 3.23865356e+01 ]
      - [ 2.14524150e+00, 1.06574532e+02, 8.39723358e+01, 8.37692261e+00 ]
      - [ 6.04032516e+00, 1.11323967e+02, 9.39155197e+01, 7.63885498e-01 ]
      - [ 3.22042012e+00, 1.12026474e+02, 2.76721058e+01, 1.69641113e+01 ]
      - [ 7.45399189e+00, 1.16347878e+02, 9.33215942e+01, 3.58063477e+02 ]
      - [ 1.90410423e+00, 1.17824287e+02, 1.04721527e+02, 2.69157898e+02 ]
      - [ 6.35943985e+00, 1.00367050e+02, 9.49228516e+01, 2.26951920e+02 ]
      - [ 2.07824111e+00, 1.08461136e+02, 1.78623295e+00, 2.57851288e+02 ]
      - [ 2.03817534e+00, 1.16591774e+02, 7.47078934e+01, 1.88764404e+02 ]
      - [ 3.41414809e+00, 1.01950867e+02, 1.04064888e+02, 2.07707214e+01 ]
      - [ 2.04303432e+00, 1.04492226e+02, 4.67535896e+01, 9.35702515e+00 ]
      - [ 5.34832478e+00, 1.06113518e+02, 3.29969788e+01, 9.46688843e+00 ]
      - [ 7.57988310e+00, 1.06413513e+02, 8.57735214e+01, 2.21925232e+02 ]
      - [ 3.41541362e+00, 1.11774773e+02, 7.03282700e+01, 2.00369873e+02 ]
      - [ 1.83012891e+00, 1.13582573e+02, 6.22327309e+01, 1.98006348e+02 ]
      - [ 2.66783977e+00, 1.14718735e+02, 5.73009911e+01, 2.54025223e+02 ]
      - [ 2.37450194e+00, 1.04667603e+02, 1.09265846e+02, 7.63197021e+01 ]
      - [ 2.65960383e+00, 1.06819740e+02, 1.07596863e+02, 6.89863892e+01 ]
      - [ 2.18644023e+00, 1.04867714e+02, 4.75759659e+01, 8.61889648e+00 ]
      - [ 2.76027727e+00, 1.15919594e+02, 8.85366898e+01, 6.07558899e+01 ]
      - [ 3.28027582e+00, 1.17743210e+02, 5.98130798e+01, 2.34194016e+02 ]
   decision_functions:
      -
         sv_count: 103
         rho: 2.6634128359681282e+00
         alpha: [ 6.7388536492475823e-02, 9.4653189931974624e-01,
             3.8413770887444521e-01, 4.1825882338058701e-02,
             1.2039731339064770e+00, 3.4941515238799381e-01,
             2.0104839831634644e-01, 3.1204334421632851e-01,
             2.7662114199638083e-01, 1.4354031218023877e-01,
             5.7384529690756825e-01, 7.7174260598243644e-02,
             2.4243352694382855e-01, 4.5804254197751393e-01,
             2.1637895091342721e-01, 3.2645109438525183e-01,
             5.2208712174468663e-01, 1.0001791717952038e+00,
             3.7639521817851673e-01, 1.5375835210291158e-01,
             5.9093057723057918e-01, 6.2246517029115789e-01,
             9.9701190326554900e-01, 1.9515634653686775e-01,
             2.8470410511009042e-01, 5.1953868591616485e-02,
             1.5109249808705714e+00, 4.1443091579456259e-01,
             1.3087411169850791e-01, 8.1630977037698815e-01,
             7.2597502041269335e-01, 2.3778718883612729e-01,
             1.9270927324087747e-01, 6.6287156393890712e-01,
             4.8473998990653644e-01, 1.7908158083300290e+00,
             6.4044927291991327e-01, 1.2656499087230937e+00,
             8.5168545210979801e-02, 8.2476564150667830e-01,
             2.0307722913024295e-01, 8.1175799939452420e-01,
             9.2702518800871625e-01, 1.2194796649829929e+00,
             1.6075627038127172e+00, 6.4898028007717101e-01,
             9.8856926079337382e-01, 9.9046773691504064e-01,
             8.0456036924981111e-03, 1.9671329017262789e+00,
             1.3836901685906081e-02, 2.0350590396403478e-01,
             3.6340808082029880e-01, 8.8734245905335674e-01,
             1.3918136782424018e-01, -1.7777506819632710e-01,
             -2.6212130840974851e-01, -1.0830651847123520e+00,
             -5.3351827371744787e-01, -3.3708413170802198e-01,
             -7.3777532359347742e-01, -5.3372109859606964e-01,
             -1.1942633142234028e-03, -5.6889935082257681e-01,
             -9.3901195256614445e-01, -1.4956152316983248e-01,
             -1.5801114929632127e+00, -1.0777921572159563e+00,
             -7.9175157329380852e-02, -9.4975722295726350e-01,
             -8.1667277399297922e-01, -2.1234878166982621e-01,
             -2.0177682278427436e-01, -8.2646178710629514e-02,
             -8.0116302344454848e-01, -5.7723005539743777e-01,
             -1.4990640684528351e+00, -8.1355543353209075e-02,
             -4.6837572035277192e-01, -6.6224709551416250e-01,
             -7.3590441574625409e-01, -5.2948680987832009e-01,
             -2.6951511192277666e-01, -1.4898536818216059e+00,
             -5.0782299893402405e-01, -1.5053391646924688e+00,
             -2.7261995768626757e-01, -5.4957487273862426e-01,
             -1.4194421804131327e+00, -1.5297513081774738e-02,
             -8.7766933485266752e-01, -8.6466526974635438e-01,
             -9.5193552199929909e-01, -1.4312021681498719e+00,
             -1.4251861314058574e+00, -2.0498733482783491e-01,
             -2.8917209545409450e-02, -1.6688295148176577e+00,
             -3.3366369678265440e-01, -1.9620169905795967e-01,
             -1.0279189292582231e+00, -5.1276829363333520e-01,
             -1.4609290631228081e-01 ]
         index: [ 0, 1, 2, 3, 4, 5, 6, 7, 8, 9, 10, 11, 12, 13, 14, 15,
             16, 17, 18, 19, 20, 21, 22, 23, 24, 25, 26, 27, 28, 29, 30,
             31, 32, 33, 34, 35, 36, 37, 38, 39, 40, 41, 42, 43, 44, 45,
             46, 47, 48, 49, 50, 51, 52, 53, 54, 55, 56, 57, 58, 59, 60,
             61, 62, 63, 64, 65, 66, 67, 68, 69, 70, 71, 72, 73, 74, 75,
             76, 77, 78, 79, 80, 81, 82, 83, 84, 85, 86, 87, 88, 89, 90,
             91, 92, 93, 94, 95, 96, 97, 98, 99, 100, 101, 102 ]
