%YAML:1.0
---
opencv_ml_svm:
   format: 3
   svmType: C_SVC
   kernel:
      type: INTER
      gamma: 1.
   C: 100.
   term_criteria: { iterations:10000000 }
   var_count: 4
   class_count: 2
   class_labels: !!opencv-matrix
      rows: 2
      cols: 1
      dt: i
      data: [ 1, 2 ]
   sv_total: 95
   support_vectors:
      - [ 4.36747551e+00, 1.07618919e+02, 8.78628616e+01, 5.98770447e+01 ]
      - [ 1.11316338e+01, 1.08121849e+02, 9.85923996e+01, 1.87445053e+02 ]
      - [ 4.38991690e+00, 1.15437325e+02, 9.19043732e+01, 2.33341064e+01 ]
      - [ 4.21792984e+00, 1.06077591e+02, 8.45106430e+01, 5.31618958e+01 ]
      - [ 5.09565163e+00, 1.13213890e+02, 8.89674835e+01, 4.73711548e+01 ]
      - [ 3.50368094e+00, 1.17538025e+02, 8.27825928e+01, 1.96635437e+01 ]
      - [ 2.90598249e+00, 1.17568832e+02, 9.03736649e+01, 6.62754517e+01 ]
      - [ 4.21668959e+00, 1.06472557e+02, 1.02228722e+02, 7.68313599e+00 ]
      - [ 4.39356947e+00, 1.13844872e+02, 9.36291885e+01, 2.38968567e+02 ]
      - [ 8.09758282e+00, 1.03121063e+02, 8.96671829e+01, 1.64479065e+01 ]
      - [ 2.15356493e+00, 1.10918617e+02, 8.18466110e+01, 1.27122177e+02 ]
      - [ 5.33910656e+00, 1.15175644e+02, 7.05233307e+01, 2.33735184e+02 ]
      - [ 8.60194397e+00, 1.04109467e+02, 1.06096649e+02, 5.20645142e+01 ]
      - [ 4.37886696e+01, 1.11145218e+02, 5.33291779e+01, 2.63545227e+01 ]
      - [ 2.68218589e+00, 1.12326645e+02, 1.01941177e+02, 2.88542572e+02 ]
      - [ 3.29021311e+00, 1.13939125e+02, 5.06935844e+01, 3.25908203e+01 ]
      - [ 6.04802465e+00, 1.15215324e+02, 8.85643539e+01, 1.12159424e+01 ]
      - [ 2.16480350e+00, 1.15024940e+02, 7.74332962e+01, 9.78954468e+01 ]
      - [ 1.83033810e+01, 1.15574631e+02, 6.81406937e+01, 2.10517563e+02 ]
      - [ 4.92316151e+00, 1.18797142e+02, 6.73194656e+01, 1.28226929e+01 ]
      - [ 3.24760985e+00, 1.11588341e+02, 8.09025040e+01, 1.84500305e+02 ]
      - [ 2.23351932e+00, 1.12799103e+02, 8.47570572e+01, 9.76707153e+01 ]
      - [ 6.02942610e+00, 1.15440933e+02, 6.98384781e+01, 1.35198975e+01 ]
      - [ 3.99188495e+00, 1.17115341e+02, 7.18526306e+01, 2.46163330e+02 ]
      - [ 3.87503314e+00, 1.13107857e+02, 9.85315018e+01, 2.84708862e+01 ]
      - [ 2.53668189e+00, 1.15798752e+02, 8.82702408e+01, 6.87314453e+01 ]
      - [ 8.07171535e+00, 1.18797569e+02, 8.33047791e+01, 1.33593750e+00 ]
      - [ 4.41659641e+00, 1.03935120e+02, 7.85167084e+01, 4.22097473e+01 ]
      - [ 3.92797327e+00, 1.10818268e+02, 5.76337433e+01, 5.54809570e-02 ]
      - [ 6.25439358e+00, 1.14847084e+02, 6.65945129e+01, 1.44567566e+01 ]
      - [ 5.13712215e+00, 1.18647614e+02, 2.69388390e+01, 5.14837646e+01 ]
      - [ 2.17193222e+00, 1.01629059e+02, 7.96928864e+01, 3.93303833e+01 ]
      - [ 1.13325224e+01, 1.02320648e+02, 1.00661148e+02, 4.53995056e+01 ]
      - [ 4.31707907e+00, 1.05862061e+02, 9.59448471e+01, 3.69362793e+01 ]
      - [ 3.97847676e+00, 1.08958839e+02, 9.39465485e+01, 1.69495728e+02 ]
      - [ 2.19817257e+00, 1.09272110e+02, 3.79072876e+01, 2.01532578e+02 ]
      - [ 9.33347988e+00, 1.10317009e+02, 8.67130890e+01, 2.19730957e+02 ]
      - [ 3.89901137e+00, 1.10554665e+02, 2.57048054e+01, 1.40861511e+01 ]
      - [ 2.27288127e+00, 1.12763374e+02, 1.00995125e+02, 8.29028015e+01 ]
      - [ 3.11858225e+00, 1.18392654e+02, 9.38727951e+01, 2.23356598e+02 ]
      - [ 5.28422070e+00, 1.03046318e+02, 8.18553619e+01, 2.02031860e+01 ]
      - [ 2.14760089e+00, 1.09450905e+02, 7.84630432e+01, 3.56454224e+02 ]
      - [ 1.27478304e+01, 1.13791389e+02, 3.37283783e+01, 1.62402344e+01 ]
      - [ 2.33547378e+00, 1.16869347e+02, 7.51735992e+01, 2.42565918e+02 ]
      - [ 5.87055635e+00, 1.17545593e+02, 7.31434631e+01, 2.41287476e+02 ]
      - [ 5.86664820e+00, 1.19216507e+02, 6.53491974e+01, 3.29843140e+01 ]
      - [ 3.06448960e+00, 1.11152283e+02, 7.32788849e+01, 2.28102112e+01 ]
      - [ 5.01681900e+00, 1.18206535e+02, 7.71261139e+01, 9.98339844e+00 ]
      - [ 2.14604878e+00, 1.11511963e+02, 6.30817566e+01, 1.76220566e+02 ]
      - [ 2.16355872e+00, 1.09850136e+02, 7.71027832e+01, 2.17017502e+02 ]
      - [ 3.57195854e+00, 1.11234215e+02, 1.04800980e+02, 2.37498581e+02 ]
      - [ 4.50305653e+00, 1.05038414e+02, 2.22666130e+01, 9.92794800e+00 ]
      - [ 1.76070690e+01, 1.14089691e+02, 8.87804108e+01, 6.87275696e+01 ]
      - [ 3.92220306e+00, 1.16523994e+02, 7.17876129e+01, 1.57530518e+01 ]
      - [ 3.00218844e+00, 1.07991623e+02, 8.38251419e+01, 1.86979843e+02 ]
      - [ 3.38017693e+01, 1.12357117e+02, 1.00110306e+02, 2.99940369e+02 ]
      - [ 5.07522917e+00, 1.19578278e+02, 9.51973419e+01, 2.53495972e+02 ]
      - [ 4.27544498e+00, 1.09155022e+02, 1.05690659e+02, 2.88496094e+01 ]
      - [ 3.94163775e+00, 1.17889046e+02, 8.80043182e+01, 2.27960403e+02 ]
      - [ 3.19329691e+00, 1.19090523e+02, 9.09937210e+01, 1.81790161e+00 ]
      - [ 2.23692060e+00, 1.00904991e+02, 9.62663879e+01, 2.03575272e+02 ]
      - [ 2.13558984e+00, 1.10188683e+02, 9.21326447e+01, 3.45130310e+02 ]
      - [ 6.35154486e+00, 1.16565147e+02, 9.36168213e+01, 2.04877640e+02 ]
      - [ 3.92946243e+00, 1.18522446e+02, 1.02018929e+02, 2.39692703e+02 ]
      - [ 5.02325392e+00, 1.00511818e+02, 3.97639885e+01, 9.32910156e+00 ]
      - [ 3.11377430e+00, 1.11091965e+02, 7.39775009e+01, 3.43292847e+01 ]
      - [ 8.27689648e+00, 1.13086876e+02, 6.35656509e+01, 2.20529984e+02 ]
      - [ 5.26954508e+00, 1.15119637e+02, 9.29662247e+01, 1.88291641e+02 ]
      - [ 1.26922073e+01, 1.00582329e+02, 9.54361572e+01, 1.79415268e+02 ]
      - [ 3.37212729e+00, 1.05633545e+02, 8.69810257e+01, 1.99003906e+01 ]
      - [ 6.89533472e+00, 1.06721603e+02, 6.76339264e+01, 1.97645645e+02 ]
      - [ 7.10918379e+00, 1.10180984e+02, 9.19149246e+01, 1.34370651e+02 ]
      - [ 1.47197771e+01, 1.16051537e+02, 8.21993484e+01, 2.75723572e+02 ]
      - [ 5.45261908e+00, 1.18156799e+02, 8.96620941e+01, 5.66922302e+01 ]
      - [ 5.60201979e+00, 1.01238609e+02, 4.62608185e+01, 6.62254028e+01 ]
      - [ 6.01921129e+00, 1.06503891e+02, 8.63136978e+01, 2.11332123e+02 ]
      - [ 5.19517279e+00, 1.06657745e+02, 3.28789444e+01, 5.80749512e-01 ]
      - [ 2.13950229e+00, 1.10256798e+02, 6.18700743e+00, 8.19338074e+01 ]
      - [ 4.20469904e+00, 1.12904778e+02, 7.98366241e+01, 2.65568848e+01 ]
      - [ 4.35562420e+00, 1.18803772e+02, 3.59344444e+01, 4.93597412e+00 ]
      - [ 4.85758781e+00, 1.07170235e+02, 2.72097836e+01, 1.52044678e+01 ]
      - [ 6.51648188e+00, 1.19202721e+02, 8.74391708e+01, 8.50289612e+01 ]
      - [ 1.12354403e+01, 1.05509895e+02, 7.01095886e+01, 2.42326965e+02 ]
      - [ 2.16357136e+00, 1.01064659e+02, 6.78057785e+01, 9.79054565e+01 ]
      - [ 2.02843189e+01, 1.11610535e+02, 8.67201996e+01, 1.96375717e+02 ]
      - [ 2.43071055e+00, 1.11301231e+02, 1.05998322e+02, 7.41349792e+01 ]
      - [ 4.25137615e+00, 1.15253227e+02, 8.76893387e+01, 2.26502991e+01 ]
      - [ 3.02378058e+00, 1.15812340e+02, 8.40286484e+01, 2.62250061e+01 ]
      - [ 2.21290374e+00, 1.16134140e+02, 1.00829323e+02, 1.76267838e+02 ]
      - [ 4.55482435e+00, 1.14009987e+02, 8.32427216e+01, 3.71952820e+01 ]
      - [ 3.49201846e+00, 1.18314384e+02, 5.58603706e+01, 2.42924103e+02 ]
      - [ 3.40752196e+00, 1.03436920e+02, 9.91408768e+01, 4.07812500e+01 ]
      - [ 2.78883696e+00, 1.04457390e+02, 7.62810440e+01, 2.22919296e+02 ]
      - [ 9.82851219e+00, 1.07649330e+02, 1.14989540e+02, 1.31985168e+01 ]
      - [ 5.50381899e+00, 1.17507790e+02, 9.92065659e+01, 1.45344849e+01 ]
   decision_functions:
      -
         sv_count: 95
         rho: 4.1426036451215040e+00
         alpha: [ 5.1776737305480103e-01, 6.7018759232234404e-01,
             8.6382044733346497e-01, 4.2481426675398365e-02,
             1.6601779961845117e-01, 3.9510957582439576e-01,
             2.7689487389298506e-01, 8.1415240258145849e-01,
             1.5027856660212432e-01, 7.0216973556587425e-01,
             1.0255028082421357e-01, 5.1489836465343497e-01,
             3.5914482169942846e-01, 6.8905243658424903e-02,
             2.9196690919336105e-01, 4.0311254811869329e-01,
             1.0858959172094250e-02, 2.6378136503779076e-01,
             8.3349083187831619e-01, 3.4586938062923916e-01,
             4.3065692607736650e-01, 5.2476703435458649e-01,
             2.0808431504846595e-01, 8.1128311393695107e-01,
             9.6346498166735794e-01, 9.0211705384854801e-01,
             5.7009044140380072e-01, 3.2436775122721656e-01,
             2.4920858038942456e-01, 1.3192388624645060e-01,
             1.1391721501360441e-02, 6.1848501454602389e-01,
             4.0296473325837724e-02, 9.9366499522114426e-01,
             7.2751860961427661e-02, 4.5433266378720616e-01,
             1.0840100145160034e+00, 5.1930734643150034e-01,
             3.6931632123650521e-01, 9.2498033625285281e-01,
             5.7998907142572609e-01, 1.6747399020152623e-01,
             5.1052695217984523e-01, 5.9730446902015100e-01,
             9.2997323175026025e-01, 6.7192319452768667e-01,
             4.1318889380857882e-01, 3.5436852838135358e-01,
             6.6630882658091162e-01, -8.3955996201971383e-01,
             -2.2001670093751732e-01, -1.9241320002307211e-01,
             -9.1148875636209237e-01, -1.1561675484667620e+00,
             -5.7184657433260599e-01, -6.9145562555669712e-02,
             -3.6332140973743415e-01, -1.3934780874893032e-01,
             -1.8801769859695783e-01, -6.0467097821591786e-01,
             -6.9457681361905749e-02, -2.2147033914801048e-01,
             -5.1176452908114878e-01, -4.5261881231499418e-01,
             -1.3636094447436223e-01, -1.4471483506490392e+00,
             -1.2644700560948900e+00, -3.6692798775148128e-01,
             -1.4324288391395540e-01, -5.5234930562602202e-01,
             -1.3776780147306461e-01, -2.0213703121753379e-01,
             -1.8266813694472955e-01, -8.2772237905133550e-01,
             -1.6563127041256298e-01, -1.7350249231859277e-01,
             -3.2237759170712543e-01, -1.1996021785621640e-01,
             -1.1581755036533730e+00, -5.3276256976141301e-01,
             -2.2525200666365180e-01, -1.1966307727588509e-01,
             -1.2108364692057414e+00, -7.7117603774784915e-01,
             -6.1077815666071227e-02, -3.0572126699585989e-01,
             -1.1497208358512119e+00, -2.3823194501499184e-01,
             -6.7161316145776029e-01, -1.0168014233168958e+00,
             -5.1507265966916749e-01, -7.3252795265540838e-01,
             -3.1181127396471064e-01, -1.8812346639979580e-01,
             -1.1268750114989472e+00 ]
         index: [ 0, 1, 2, 3, 4, 5, 6, 7, 8, 9, 10, 11, 12, 13, 14, 15,
             16, 17, 18, 19, 20, 21, 22, 23, 24, 25, 26, 27, 28, 29, 30,
             31, 32, 33, 34, 35, 36, 37, 38, 39, 40, 41, 42, 43, 44, 45,
             46, 47, 48, 49, 50, 51, 52, 53, 54, 55, 56, 57, 58, 59, 60,
             61, 62, 63, 64, 65, 66, 67, 68, 69, 70, 71, 72, 73, 74, 75,
             76, 77, 78, 79, 80, 81, 82, 83, 84, 85, 86, 87, 88, 89, 90,
             91, 92, 93, 94 ]
