%YAML:1.0
---
opencv_ml_svm:
   format: 3
   svmType: C_SVC
   kernel:
      type: POLY
      degree: 3.
      gamma: 1.
      coef0: 0.
   C: 100.
   term_criteria: { iterations:10000000 }
   var_count: 4
   class_count: 2
   class_labels: !!opencv-matrix
      rows: 2
      cols: 1
      dt: i
      data: [ 1, 2 ]
   sv_total: 22
   support_vectors:
      - [ 2.46751571e+00, 1.26568199e+02, 5.60206642e+01, 2.20273514e+02 ]
      - [ 2.88298583e+00, 1.28087158e+02, 7.48513641e+01, 1.81517120e+02 ]
      - [ 2.98667598e+00, 1.34545410e+02, 7.39514008e+01, 4.33867798e+01 ]
      - [ 6.13551140e+00, 1.38106674e+02, 6.38092346e+01, 2.25228867e+02 ]
      - [ 6.70632696e+00, 1.24946495e+02, 6.76415939e+01, 1.62450562e+01 ]
      - [ 4.92422152e+00, 1.23646027e+02, 7.84454117e+01, 1.93479340e+02 ]
      - [ 2.38738942e+00, 1.21323006e+02, 8.05444946e+01, 4.05389099e+01 ]
      - [ 4.94588852e+00, 1.21415176e+02, 7.56828537e+01, 2.42725586e+02 ]
      - [ 8.48508072e+00, 1.24563828e+02, 6.14658089e+01, 1.87567230e+02 ]
      - [ 3.42113876e+00, 1.25640663e+02, 8.08608093e+01, 2.06595154e+01 ]
      - [ 3.23190188e+00, 1.20283539e+02, 2.40838604e+01, 2.10313278e+02 ]
      - [ 8.06082058e+00, 1.24594444e+02, 6.38357391e+01, 1.96811295e+02 ]
      - [ 9.27363300e+00, 1.37543106e+02, 5.28448410e+01, 2.52082565e+02 ]
      - [ 2.24463081e+00, 1.33984238e+02, 6.55530243e+01, 1.72276230e+02 ]
      - [ 2.86095548e+00, 1.34107452e+02, 6.95920258e+01, 2.00213333e+02 ]
      - [ 3.32202411e+00, 1.34886093e+02, 5.79588013e+01, 1.73704544e+02 ]
      - [ 3.51319695e+00, 1.35184311e+02, 8.44523392e+01, 1.73397217e+01 ]
      - [ 9.48952675e+00, 1.35987167e+02, 6.00226173e+01, 1.93772308e+02 ]
      - [ 6.63924646e+00, 1.29617020e+02, 7.61925125e+01, 3.51932404e+02 ]
      - [ 3.06128359e+00, 1.30473389e+02, 9.45324516e+00, 1.37813721e+01 ]
      - [ 1.89857233e+00, 1.32225571e+02, 6.55133743e+01, 2.29668335e+02 ]
      - [ 5.06537962e+00, 1.27196594e+02, 7.09165268e+01, 1.93614441e+02 ]
   decision_functions:
      -
         sv_count: 22
         rho: -9.4945168289601793e+02
         alpha: [ 2.0530641593663913e-06, 2.1076077420956384e-06,
             1.1893485905809110e-07, 2.5250745924550773e-06,
             1.0219969899861968e-07, 3.6602688198599728e-11,
             7.1547255290719122e-08, 4.7592470025648294e-07,
             -1.4059048204504673e-09, -3.4737805444012716e-10,
             -7.7489639614839314e-08, -4.4367067530221219e-11,
             -6.9261765759373721e-07, -9.5604365114894344e-11,
             -1.7158939998694938e-09, -7.5921048655259116e-07,
             -1.8489852510229386e-07, -2.8940792812992560e-09,
             -1.5860424432485941e-08, -2.7660548938959847e-09,
             -2.5136305652019989e-06, -3.2014130292286185e-06 ]
         index: [ 0, 1, 2, 3, 4, 5, 6, 7, 8, 9, 10, 11, 12, 13, 14, 15,
             16, 17, 18, 19, 20, 21 ]
