%YAML:1.0
---
opencv_ml_svm:
   format: 3
   svmType: C_SVC
   kernel:
      type: INTER
      gamma: 1.
   C: 100.
   term_criteria: { iterations:10000000 }
   var_count: 4
   class_count: 2
   class_labels: !!opencv-matrix
      rows: 2
      cols: 1
      dt: i
      data: [ 1, 2 ]
   sv_total: 66
   support_vectors:
      - [ 2.14604878e+00, 1.26252052e+02, 6.13745499e+01, 1.76220566e+02 ]
      - [ 2.15945506e+00, 1.20873306e+02, 8.71281281e+01, 3.56517822e+02 ]
      - [ 3.48740435e+00, 1.20054146e+02, 7.62842407e+01, 4.27969971e+01 ]
      - [ 8.11537170e+00, 1.31326721e+02, 6.46314774e+01, 2.22814606e+02 ]
      - [ 5.23431158e+00, 1.31582550e+02, 7.20707169e+01, 8.28091431e+00 ]
      - [ 3.95087790e+00, 1.37922928e+02, 7.01276855e+01, 1.11496582e+01 ]
      - [ 4.28463602e+00, 1.21634903e+02, 7.11575851e+01, 1.51686401e+01 ]
      - [ 8.07647228e+00, 1.25095848e+02, 6.90920181e+01, 1.35779419e+01 ]
      - [ 8.58207703e+00, 1.25991440e+02, 7.73788452e+01, 1.24550171e+01 ]
      - [ 6.43268204e+00, 1.22962822e+02, 8.20914001e+01, 5.02132263e+01 ]
      - [ 4.23583841e+00, 1.26622757e+02, 8.20259323e+01, 2.33554962e+02 ]
      - [ 2.62527466e+00, 1.31747421e+02, 8.09884415e+01, 2.85101624e+01 ]
      - [ 4.27012539e+00, 1.20359184e+02, 8.78254623e+01, 2.72000122e+01 ]
      - [ 3.12682724e+00, 1.22609467e+02, 8.13563156e+01, 1.68600769e+01 ]
      - [ 2.15078926e+00, 1.31279556e+02, 1.34337635e+01, 3.95589600e+01 ]
      - [ 5.18686056e+00, 1.33857132e+02, 6.62861557e+01, 2.03871460e+01 ]
      - [ 5.95536089e+00, 1.35328629e+02, 5.48911095e+01, 2.93472290e+01 ]
      - [ 6.12776518e+00, 1.24451012e+02, 6.07269974e+01, 7.06607056e+00 ]
      - [ 4.93638039e+00, 1.25623436e+02, 6.61198120e+01, 1.24557495e+01 ]
      - [ 2.12407374e+00, 1.32560532e+02, 6.84733124e+01, 9.88546753e+01 ]
      - [ 1.51253386e+01, 1.33662094e+02, 6.28527412e+01, 7.87229309e+01 ]
      - [ 6.06313896e+00, 1.34029938e+02, 6.78800392e+00, 3.87037659e+01 ]
      - [ 5.23269320e+00, 1.37762894e+02, 5.52819443e+01, 3.40603638e+01 ]
      - [ 7.79183722e+00, 1.21433075e+02, 8.79239349e+01, 5.29602051e-01 ]
      - [ 6.40665150e+00, 1.27079475e+02, 8.06600800e+01, 2.06186554e+02 ]
      - [ 2.52829051e+00, 1.28050598e+02, 8.50002899e+01, 2.37471008e+01 ]
      - [ 9.26090145e+00, 1.20021027e+02, 8.02748947e+01, 8.51465454e+01 ]
      - [ 3.37624097e+00, 1.23735123e+02, 5.04533958e+01, 1.97505066e+02 ]
      - [ 6.36253023e+00, 1.34681229e+02, 5.72725372e+01, 1.91175842e+01 ]
      - [ 5.04290438e+00, 1.20757690e+02, 2.30231476e+01, 4.72239075e+01 ]
      - [ 5.59931326e+00, 1.28050125e+02, 5.99456139e+01, 3.27517395e+01 ]
      - [ 3.01526809e+00, 1.31143860e+02, 7.26373367e+01, 5.75170593e+01 ]
      - [ 3.98625350e+00, 1.35432358e+02, 6.27132759e+01, 2.21595184e+02 ]
      - [ 5.25558233e+00, 1.35776215e+02, 5.59227562e+01, 2.27847672e+02 ]
      - [ 5.05978727e+00, 1.24660622e+02, 5.86399727e+01, 2.32580688e+02 ]
      - [ 6.53294230e+00, 1.23043877e+02, 7.07441330e+01, 3.41925385e+02 ]
      - [ 4.83200502e+00, 1.26884438e+02, 8.68568115e+01, 2.85335999e+01 ]
      - [ 6.24185181e+00, 1.20017921e+02, 9.96302185e+01, 1.12807007e+01 ]
      - [ 6.87350845e+00, 1.24705460e+02, 6.10582428e+01, 1.84250244e+02 ]
      - [ 5.11188173e+00, 1.25958817e+02, 8.75537033e+01, 2.49650055e+02 ]
      - [ 3.07249904e+00, 1.20725243e+02, 1.05907524e+02, 1.92051697e+01 ]
      - [ 3.36685181e+00, 1.21308578e+02, 1.22003746e+01, 7.62365723e+00 ]
      - [ 3.27713814e+01, 1.20807228e+02, 8.13127594e+01, 4.85014038e+01 ]
      - [ 4.27380896e+00, 1.23705437e+02, 8.08741302e+01, 1.33304138e+01 ]
      - [ 3.06115294e+00, 1.33659637e+02, 7.80889740e+01, 4.65714722e+01 ]
      - [ 5.30884838e+00, 1.36301804e+02, 5.79161987e+01, 5.40890503e+01 ]
      - [ 4.32891893e+00, 1.30450714e+02, 7.15875854e+01, 2.76488983e+02 ]
      - [ 2.06232429e+00, 1.21961304e+02, 7.02208557e+01, 1.89067535e+02 ]
      - [ 8.27379322e+00, 1.24812187e+02, 1.12374229e+01, 3.04715271e+01 ]
      - [ 3.88615918e+00, 1.39004608e+02, 7.52637405e+01, 1.81186218e+01 ]
      - [ 2.15274882e+00, 1.26489998e+02, 8.27440109e+01, 3.69555359e+01 ]
      - [ 2.67191887e+00, 1.27332703e+02, 6.98913574e+01, 1.93683929e+02 ]
      - [ 5.49159956e+00, 1.30561035e+02, 5.41790962e+01, 1.97479248e+02 ]
      - [ 5.05128479e+00, 1.29558945e+02, 9.42230988e+01, 1.84151917e+01 ]
      - [ 6.64058781e+00, 1.32889999e+02, 7.49232254e+01, 2.41164825e+02 ]
      - [ 6.35903883e+00, 1.20525887e+02, 5.81926003e+01, 2.24144379e+02 ]
      - [ 3.57196617e+00, 1.28353745e+02, 8.78987961e+01, 1.67186432e+02 ]
      - [ 8.88749218e+00, 1.33826630e+02, 4.41911964e+01, 1.91186752e+02 ]
      - [ 2.72685027e+00, 1.37581009e+02, 8.07919922e+01, 7.25671997e+01 ]
      - [ 3.70827913e+00, 1.34220703e+02, 8.46116791e+01, 2.41787109e+01 ]
      - [ 2.84043097e+00, 1.34945801e+02, 6.69164658e+01, 8.15039063e+00 ]
      - [ 7.59048033e+00, 1.20131317e+02, 9.46877213e+01, 2.17675598e+02 ]
      - [ 8.11440468e+00, 1.23735497e+02, 9.25811996e+01, 2.19248550e+02 ]
      - [ 6.48925877e+00, 1.22542107e+02, 6.44766083e+01, 1.09925217e+02 ]
      - [ 4.90583086e+00, 1.21598923e+02, 7.33384552e+01, 3.52483246e+02 ]
      - [ 9.92040443e+00, 1.31502899e+02, 6.33669357e+01, 2.04265503e+02 ]
   decision_functions:
      -
         sv_count: 66
         rho: -2.6078521773401127e+00
         alpha: [ 2.4249281909728745e-01, 4.7910736882382338e-01,
             2.5431931655401596e-01, 2.3169793043256870e-01,
             4.9861046757850824e-01, 4.1700163198689644e-01,
             5.7735950285332467e-02, 1.6768264182620488e-01,
             5.7331756222382557e-01, 5.2540970190358305e-01,
             2.9523498878925836e-01, 7.3945484028234632e-01,
             7.5529008060076808e-01, 3.9983497685195157e-01,
             2.1191868942502284e-01, 1.4751947985867842e-01,
             4.4193280147309250e-02, 2.3446473712573354e-01,
             2.8671892656882980e-01, 9.7082981902380655e-02,
             1.8558018233158732e-01, 3.8844910258226989e-01,
             4.0329806305430355e-01, 1.6682588606269375e-01,
             8.5381493850056267e-01, 4.6160869323561965e-01,
             9.5870767436928489e-02, 6.8441857569276698e-01,
             3.4436777573742938e-01, 8.6037458302655315e-02,
             2.8223430714357092e-02, 1.1954262407075866e-01,
             5.8953435286756140e-01, 2.2044898051109413e-01,
             1.1696427412503219e-01, -1.4714748544841180e-01,
             -1.1386088248134616e+00, -5.9725516502302338e-02,
             -1.0169149085001454e-01, -9.9209333896866612e-03,
             -1.7989393519845617e-02, -2.8901162348301818e-01,
             -7.3830326558858170e-02, -1.4384967277981220e+00,
             -5.5072623947426902e-01, -3.0769511541685440e-01,
             -1.6858451567696761e-02, -3.1700962808365242e-02,
             -4.5575245873166703e-01, -5.0939890674425392e-01,
             -8.9638913589364022e-01, -9.4199758854342980e-02,
             -6.8237943256685363e-01, -5.8978200927070713e-02,
             -2.0497536893037394e-01, -1.1281173049082864e+00,
             -4.2252045526821998e-02, -8.2717800881601897e-02,
             -2.5318278100330094e-01, -5.7473388526522273e-01,
             -8.9747656170139789e-01, -8.5672947981013076e-02,
             -1.2644072677983753e-02, -1.8294691608361333e-01,
             -3.4214873097477544e-01, -7.1670407620681964e-01 ]
         index: [ 0, 1, 2, 3, 4, 5, 6, 7, 8, 9, 10, 11, 12, 13, 14, 15,
             16, 17, 18, 19, 20, 21, 22, 23, 24, 25, 26, 27, 28, 29, 30,
             31, 32, 33, 34, 35, 36, 37, 38, 39, 40, 41, 42, 43, 44, 45,
             46, 47, 48, 49, 50, 51, 52, 53, 54, 55, 56, 57, 58, 59, 60,
             61, 62, 63, 64, 65 ]
