%YAML:1.0
---
opencv_ml_svm:
   format: 3
   svmType: C_SVC
   kernel:
      type: POLY
      degree: 3.
      gamma: 1.
      coef0: 0.
   C: 100.
   term_criteria: { iterations:10000000 }
   var_count: 4
   class_count: 2
   class_labels: !!opencv-matrix
      rows: 2
      cols: 1
      dt: i
      data: [ 1, 2 ]
   sv_total: 6
   support_vectors:
      - [ 2.76468873e+00, 1.53577591e+02, 4.76941223e+01, 5.36343384e+01 ]
      - [ 4.56806183e+00, 1.41963745e+02, 6.56864700e+01, 2.34553741e+02 ]
      - [ 5.51942968e+00, 1.59446777e+02, 9.34267426e+01, 9.72188110e+01 ]
      - [ 2.02373123e+00, 1.47259140e+02, 6.77673569e+01, 6.13624878e+01 ]
      - [ 6.37577915e+00, 1.46570267e+02, 6.20378227e+01, 2.17597122e+02 ]
      - [ 4.33874130e+00, 1.49971375e+02, 5.66253242e+01, 7.80355530e+01 ]
   decision_functions:
      -
         sv_count: 6
         rho: 1.1900907392722759e+01
         alpha: [ 7.3990120987252921e-12, 3.2589190154447535e-12,
             2.4793509851558397e-12, -8.4090066938183872e-12,
             -4.0458823072769625e-12, -6.8239309924765798e-13 ]
         index: [ 0, 1, 2, 3, 4, 5 ]
