%YAML:1.0
---
opencv_ml_svm:
   format: 3
   svmType: C_SVC
   kernel:
      type: INTER
      gamma: 1.
   C: 100.
   term_criteria: { iterations:10000000 }
   var_count: 4
   class_count: 2
   class_labels: !!opencv-matrix
      rows: 2
      cols: 1
      dt: i
      data: [ 1, 2 ]
   sv_total: 26
   support_vectors:
      - [ 5.05978727e+00, 1.41138748e+02, 5.68773804e+01, 2.32580688e+02 ]
      - [ 7.74541330e+00, 1.46075806e+02, 9.68153687e+01, 6.78260498e+01 ]
      - [ 8.38986683e+00, 1.59954361e+02, 8.45669327e+01, 5.80955505e+01 ]
      - [ 8.38986683e+00, 1.59954361e+02, 8.45669327e+01, 2.49098206e+02 ]
      - [ 5.76103735e+00, 1.42131134e+02, 6.44171677e+01, 3.22243805e+02 ]
      - [ 7.74040365e+00, 1.55998337e+02, 4.50160675e+01, 4.96655884e+01 ]
      - [ 3.04013991e+00, 1.59931290e+02, 8.03284378e+01, 2.59684235e+02 ]
      - [ 4.21420193e+00, 1.47289886e+02, 7.45693359e+01, 6.60332947e+01 ]
      - [ 4.21420193e+00, 1.47289886e+02, 7.45693359e+01, 2.53350037e+02 ]
      - [ 3.59759974e+00, 1.46945786e+02, 5.71851654e+01, 2.39850983e+02 ]
      - [ 6.93512821e+00, 1.42209412e+02, 5.16987152e+01, 4.81997986e+01 ]
      - [ 3.43908572e+00, 1.40960388e+02, 5.77031364e+01, 5.98448486e+01 ]
      - [ 4.95487928e+00, 1.46406235e+02, 6.68072052e+01, 5.53248291e+01 ]
      - [ 5.25604391e+00, 1.41531143e+02, 8.29418411e+01, 7.97536011e+01 ]
      - [ 5.20343351e+00, 1.41827591e+02, 8.84435654e+01, 6.20280151e+01 ]
      - [ 4.23721075e+00, 1.47124786e+02, 6.24561768e+01, 6.48659668e+01 ]
      - [ 5.63633871e+00, 1.58534012e+02, 4.92933311e+01, 5.27377625e+01 ]
      - [ 8.69584751e+00, 1.43871674e+02, 7.93363571e+01, 2.56755432e+02 ]
      - [ 2.84133601e+00, 1.45562134e+02, 1.08172211e+02, 2.78145142e+02 ]
      - [ 1.23366976e+01, 1.57592056e+02, 5.15405235e+01, 3.43387360e+02 ]
      - [ 2.12538195e+00, 1.49913040e+02, 8.40755997e+01, 8.80865479e+00 ]
      - [ 5.77140903e+00, 1.41312149e+02, 9.55630341e+01, 8.51435852e+01 ]
      - [ 4.54438496e+00, 1.44193222e+02, 5.38615761e+01, 2.64886688e+02 ]
      - [ 7.46743345e+00, 1.53625320e+02, 6.74394531e+01, 5.26482544e+01 ]
      - [ 2.84374189e+00, 1.59381561e+02, 6.02885284e+01, 6.84265442e+01 ]
      - [ 3.85366035e+00, 1.44037140e+02, 1.14479500e+02, 6.73915100e+01 ]
   decision_functions:
      -
         sv_count: 26
         rho: 5.6529658100779057e-01
         alpha: [ 4.9471712814534358e-02, 3.3403049465370910e-01,
             1.5972272650787142e-01, 5.5492719208170747e-02,
             1.4771821152260645e-01, 1.3575363357544043e-01,
             3.2291370890826060e-01, 2.5378533632904782e-01,
             9.0487923831810743e-02, 8.1873170980617342e-04,
             2.0870262353699970e-01, 3.3142646499150119e-01,
             -1.2027648754599717e-01, -1.0099272397961432e-02,
             -3.4204166261097368e-01, -1.6888488101962490e-01,
             -2.3130355341533262e-01, -4.1229571670855797e-01,
             -7.1168878278949313e-02, -9.3347831940163203e-02,
             -5.3342644576697247e-02, -8.4261440584325928e-02,
             -7.3287520311439092e-02, -1.1255667192836233e-01,
             -2.8195048717903071e-01, -3.5507239092344545e-02 ]
         index: [ 0, 1, 2, 3, 4, 5, 6, 7, 8, 9, 10, 11, 12, 13, 14, 15,
             16, 17, 18, 19, 20, 21, 22, 23, 24, 25 ]
