%YAML:1.0
---
opencv_ml_svm:
   format: 3
   svmType: C_SVC
   kernel:
      type: INTER
      gamma: 1.
   C: 100.
   term_criteria: { iterations:10000000 }
   var_count: 4
   class_count: 2
   class_labels: !!opencv-matrix
      rows: 2
      cols: 1
      dt: i
      data: [ 1, 2 ]
   sv_total: 16
   support_vectors:
      - [ 5.49989462e+00, 1.40787872e+02, 6.41528397e+01, 7.06048889e+01 ]
      - [ 5.62094069e+00, 1.47967545e+02, 4.05522690e+01, 2.50837631e+02 ]
      - [ 5.94023848e+00, 1.52712372e+02, 4.79191284e+01, 6.90277710e+01 ]
      - [ 1.94582236e+00, 1.45611557e+02, 1.75324516e+01, 1.39829163e+02 ]
      - [ 2.73096275e+00, 1.56755722e+02, 1.07702400e+02, 6.03408813e+00 ]
      - [ 2.23870707e+00, 1.47543945e+02, 5.27726793e+00, 2.15734802e+02 ]
      - [ 3.24177241e+00, 1.50250641e+02, 1.12060738e+02, 6.67566833e+01 ]
      - [ 1.83901334e+00, 1.44314621e+02, 3.37142982e+01, 2.34585739e+02 ]
      - [ 1.82959354e+00, 1.40134674e+02, 1.01968132e+02, 2.55729980e+01 ]
      - [ 2.47572589e+00, 1.42249451e+02, 9.45343552e+01, 3.59871552e+02 ]
      - [ 2.02373123e+00, 1.47259140e+02, 6.77673569e+01, 6.13624878e+01 ]
      - [ 2.48692513e+00, 1.40558151e+02, 8.86482010e+01, 7.21037598e+01 ]
      - [ 1.99886119e+00, 1.48014908e+02, 5.75204964e+01, 2.58130890e+02 ]
      - [ 2.25612783e+00, 1.52966171e+02, 5.92522049e+01, 8.43307495e+00 ]
      - [ 6.37577915e+00, 1.46570267e+02, 6.20378227e+01, 2.17597122e+02 ]
      - [ 4.33874130e+00, 1.49971375e+02, 5.66253242e+01, 7.80355530e+01 ]
   decision_functions:
      -
         sv_count: 16
         rho: -2.4688293997411792e+00
         alpha: [ 2.2203416683551233e-01, 7.2310997102533461e-03,
             4.7042170722645132e-02, 6.9578556935912417e-04,
             6.7435630484004319e-02, 2.8680113516354730e-02,
             1.9666615100480303e-02, 2.4328402619460766e-02,
             3.1909178369816334e-02, 1.3428287938469202e-02,
             -6.8535148404229376e-02, -1.6594353629531750e-01,
             -1.2371259890737967e-02, -8.8822477705077507e-02,
             -6.3796975162731612e-02, -6.2982053408261601e-02 ]
         index: [ 0, 1, 2, 3, 4, 5, 6, 7, 8, 9, 10, 11, 12, 13, 14, 15 ]
