%YAML:1.0
---
opencv_ml_svm:
   format: 3
   svmType: C_SVC
   kernel:
      type: INTER
      gamma: 1.
   C: 100.
   term_criteria: { iterations:10000000 }
   var_count: 4
   class_count: 2
   class_labels: !!opencv-matrix
      rows: 2
      cols: 1
      dt: i
      data: [ 1, 2 ]
   sv_total: 25
   support_vectors:
      - [ 7.51555109e+00, 1.45818710e+02, 9.66054077e+01, 7.03023376e+01 ]
      - [ 7.58779240e+00, 1.59768921e+02, 8.67372131e+01, 2.52577606e+02 ]
      - [ 5.14493132e+00, 1.44047852e+02, 6.51254730e+01, 2.53557281e+02 ]
      - [ 6.52562094e+00, 1.59315216e+02, 9.35972214e+01, 8.24190369e+01 ]
      - [ 4.77902889e+00, 1.59028427e+02, 8.10211105e+01, 6.07991638e+01 ]
      - [ 4.52989197e+00, 1.43154831e+02, 7.67006226e+01, 5.57156067e+01 ]
      - [ 5.09089756e+00, 1.47770096e+02, 7.66821899e+01, 6.93678589e+01 ]
      - [ 3.90217090e+00, 1.53381073e+02, 9.30306625e+01, 6.02382813e+01 ]
      - [ 6.58390188e+00, 1.58112885e+02, 4.19533272e+01, 2.39853699e+02 ]
      - [ 8.14488220e+00, 1.46458832e+02, 5.35205994e+01, 6.16557617e+01 ]
      - [ 8.78903103e+00, 1.41676514e+02, 5.21954803e+01, 4.59290466e+01 ]
      - [ 5.69059515e+00, 1.46359650e+02, 6.68005142e+01, 5.89227295e+01 ]
      - [ 8.65235043e+00, 1.47062271e+02, 7.70581284e+01, 6.56519165e+01 ]
      - [ 6.45691919e+00, 1.41431595e+02, 8.66645432e+01, 8.16507263e+01 ]
      - [ 7.24380636e+00, 1.42218246e+02, 9.12597122e+01, 6.16080017e+01 ]
      - [ 6.17820597e+00, 1.45378387e+02, 4.53941956e+01, 5.33312683e+01 ]
      - [ 7.22602320e+00, 1.46307083e+02, 3.93384476e+01, 7.31756287e+01 ]
      - [ 4.02342558e+00, 1.58345856e+02, 6.44562607e+01, 8.88640442e+01 ]
      - [ 7.12596369e+00, 1.46115097e+02, 6.33734779e+01, 6.93851318e+01 ]
      - [ 1.55874128e+01, 1.53025909e+02, 5.42555275e+01, 6.30756836e+01 ]
      - [ 9.29487801e+00, 1.57821594e+02, 5.09151344e+01, 5.27406006e+01 ]
      - [ 8.37989426e+00, 1.46495667e+02, 1.06154076e+02, 2.69931580e+02 ]
      - [ 7.70506144e+00, 1.56839722e+02, 4.92201881e+01, 2.21432541e+02 ]
      - [ 1.27698793e+01, 1.41756088e+02, 9.66495514e+01, 6.48600769e+01 ]
      - [ 5.25841093e+00, 1.59208755e+02, 6.15048790e+01, 9.51594238e+01 ]
   decision_functions:
      -
         sv_count: 25
         rho: -6.6947798762212141e-01
         alpha: [ 2.1334024942563654e-01, 1.3988431628990548e-02,
             9.3318807807824755e-02, 2.7267429392945497e-01,
             7.9840792202910210e-02, 2.7379435974077154e-01,
             1.7631738950747164e-01, 7.1173107501449728e-02,
             1.1391153982139560e-01, 5.9202857695579458e-01,
             2.1266209623137430e-01, -2.0256358624551773e-01,
             -2.9728777641750948e-01, -1.5501622368954343e-01,
             -3.9928136974831274e-01, -1.5941058518086171e-01,
             -8.0662200532953726e-02, -7.6795294461048227e-02,
             -1.0337958397125153e-01, -1.1482781522748711e-01,
             -2.4931945699748626e-01, -1.1623286231299411e-01,
             -9.8948571600065705e-02, -6.8308133491375275e-04,
             -5.8641237033129102e-02 ]
         index: [ 0, 1, 2, 3, 4, 5, 6, 7, 8, 9, 10, 11, 12, 13, 14, 15,
             16, 17, 18, 19, 20, 21, 22, 23, 24 ]
