%YAML:1.0
---
opencv_ml_svm:
   format: 3
   svmType: C_SVC
   kernel:
      type: INTER
      gamma: 1.
   C: 100.
   term_criteria: { iterations:10000000 }
   var_count: 4
   class_count: 2
   class_labels: !!opencv-matrix
      rows: 2
      cols: 1
      dt: i
      data: [ 1, 2 ]
   sv_total: 7
   support_vectors:
      - [ 4.64762974e+00, 1.65981293e+02, 4.16493759e+01, 5.00077209e+01 ]
      - [ 1.85365045e+00, 1.70646149e+02, 2.65898342e+01, 7.16200867e+01 ]
      - [ 2.10725641e+00, 1.63971878e+02, 2.30431843e+00, 5.29570923e+01 ]
      - [ 5.09791327e+00, 1.61514450e+02, 7.99456100e+01, 4.37719421e+01 ]
      - [ 3.43802118e+00, 1.65659210e+02, 7.38803558e+01, 8.11878967e+01 ]
      - [ 3.09515023e+00, 1.60306396e+02, 6.49983521e+01, 6.96759949e+01 ]
      - [ 6.83447027e+00, 1.66152237e+02, 5.80195885e+01, 5.34634705e+01 ]
   decision_functions:
      -
         sv_count: 7
         rho: -1.3685734250565313e+00
         alpha: [ 6.7074263831800832e-02, 1.3633362877987932e-02,
             4.4672202172722688e-03, 4.0774816175707759e-02,
             6.4547045139121906e-02, -8.3872994578967935e-02,
             -1.0662371371496361e-01 ]
         index: [ 0, 1, 2, 3, 4, 5, 6 ]
