%YAML:1.0
---
opencv_ml_svm:
   format: 3
   svmType: C_SVC
   kernel:
      type: INTER
      gamma: 1.
   C: 100.
   term_criteria: { iterations:10000000 }
   var_count: 4
   class_count: 2
   class_labels: !!opencv-matrix
      rows: 2
      cols: 1
      dt: i
      data: [ 1, 2 ]
   sv_total: 10
   support_vectors:
      - [ 7.97572088e+00, 1.74718262e+02, 7.42264938e+01, 6.75115356e+01 ]
      - [ 5.90517569e+00, 1.64913834e+02, 8.47595596e+01, 6.97636719e+01 ]
      - [ 5.33444595e+00, 1.60241791e+02, 4.34379654e+01, 5.78472595e+01 ]
      - [ 7.23550797e+00, 1.68319168e+02, 6.08318748e+01, 2.48049500e+02 ]
      - [ 4.38563442e+00, 1.66920242e+02, 7.06878433e+01, 5.87933655e+01 ]
      - [ 4.31210947e+00, 1.67972275e+02, 7.30484314e+01, 6.02621460e+01 ]
      - [ 8.54099751e+00, 1.65786209e+02, 5.85374413e+01, 4.77557373e+01 ]
      - [ 8.36323166e+00, 1.66508438e+02, 7.31151657e+01, 6.14889832e+01 ]
      - [ 5.85649538e+00, 1.69417343e+02, 6.98255539e+01, 9.50207520e+01 ]
      - [ 1.23838110e+01, 1.61572998e+02, 5.82872391e+01, 4.28128967e+01 ]
   decision_functions:
      -
         sv_count: 10
         rho: -7.6884295409298875e-01
         alpha: [ 1.2101106241158412e-01, 4.3798132657476785e-02,
             2.8288940410454266e-02, 1.6025354693456364e-02,
             1.2668755207473467e-01, 1.7484663729870192e-01,
             -3.4035826231243967e-02, -3.7828139672977024e-01,
             -8.5926472829371298e-02, -1.2413983756022628e-02 ]
         index: [ 0, 1, 2, 3, 4, 5, 6, 7, 8, 9 ]
