%YAML:1.0
---
opencv_ml_svm:
   format: 3
   svmType: C_SVC
   kernel:
      type: INTER
      gamma: 1.
   C: 100.
   term_criteria: { iterations:10000000 }
   var_count: 4
   class_count: 2
   class_labels: !!opencv-matrix
      rows: 2
      cols: 1
      dt: i
      data: [ 1, 2 ]
   sv_total: 15
   support_vectors:
      - [ 7.41134596e+00, 1.72904831e+02, 5.71357193e+01, 5.96370239e+01 ]
      - [ 9.78250504e+00, 1.74744293e+02, 7.31780777e+01, 6.54762878e+01 ]
      - [ 9.78250504e+00, 1.74744293e+02, 7.31780777e+01, 2.47001801e+02 ]
      - [ 2.25026226e+00, 1.60261185e+02, 9.97289734e+01, 3.61287231e+01 ]
      - [ 3.17039871e+00, 1.62487869e+02, 7.52733154e+01, 6.08980408e+01 ]
      - [ 3.17039871e+00, 1.62487869e+02, 7.52733154e+01, 2.59191101e+02 ]
      - [ 2.77547812e+00, 1.67469971e+02, 7.31884995e+01, 5.69994507e+01 ]
      - [ 2.17162299e+00, 1.66247116e+02, 8.28593369e+01, 5.74613647e+01 ]
      - [ 2.17162299e+00, 1.66247116e+02, 8.28593369e+01, 2.78510651e+02 ]
      - [ 2.86422443e+00, 1.68233093e+02, 7.27626724e+01, 2.52184296e+02 ]
      - [ 8.19003487e+00, 1.66561050e+02, 7.31675339e+01, 6.22034912e+01 ]
      - [ 3.43955970e+00, 1.67029648e+02, 6.88437271e+01, 8.47890930e+01 ]
      - [ 8.03942776e+00, 1.75083771e+02, 6.19280548e+01, 4.60580750e+01 ]
      - [ 3.68122840e+00, 1.76952255e+02, 1.43227982e+02, 8.62880249e+01 ]
      - [ 4.31158209e+00, 1.64223526e+02, 1.00500664e+02, 2.61756958e+02 ]
   decision_functions:
      -
         sv_count: 15
         rho: -1.8011060193984807e+00
         alpha: [ 1.6470334202219761e-01, 2.0608334794528949e-01,
             1.0676099624035981e-02, 1.1232121807370268e-01,
             3.0744334495447774e-03, 8.5184550174963139e-02,
             1.0626702707685146e-01, 8.9815014287394374e-03,
             3.4927166990072117e-02, 2.6320926612113566e-02,
             -3.3717825608438545e-01, -5.6807237287116057e-02,
             -2.0347727296681173e-01, -1.1308421758315387e-02,
             -1.4976842530088130e-01 ]
         index: [ 0, 1, 2, 3, 4, 5, 6, 7, 8, 9, 10, 11, 12, 13, 14 ]
