%YAML:1.0
---
opencv_ml_svm:
   format: 3
   svmType: C_SVC
   kernel:
      type: INTER
      gamma: 1.
   C: 100.
   term_criteria: { iterations:10000000 }
   var_count: 4
   class_count: 2
   class_labels: !!opencv-matrix
      rows: 2
      cols: 1
      dt: i
      data: [ 1, 2 ]
   sv_total: 22
   support_vectors:
      - [ 5.18362761e+00, 1.71453339e+02, 1.80143394e+01, 2.71678467e+02 ]
      - [ 2.65407825e+00, 1.71708313e+02, 9.69275818e+01, 2.89993896e+01 ]
      - [ 6.27005339e+00, 1.76950653e+02, 7.77044830e+01, 6.46567078e+01 ]
      - [ 2.09981084e+00, 1.63909912e+02, 5.12767906e+01, 6.65639038e+01 ]
      - [ 5.27122831e+00, 1.68338303e+02, 4.85172997e+01, 6.32136841e+01 ]
      - [ 3.09070444e+00, 1.75033051e+02, 3.42005310e+01, 2.34972229e+02 ]
      - [ 2.21659541e+00, 1.78109711e+02, 3.04516106e+01, 2.61380554e+02 ]
      - [ 2.53186297e+00, 1.68597092e+02, 8.81742477e+01, 7.59496155e+01 ]
      - [ 3.09231210e+00, 1.64026611e+02, 9.44549332e+01, 6.34145813e+01 ]
      - [ 2.26743293e+00, 1.68324234e+02, 7.03104248e+01, 5.67844543e+01 ]
      - [ 3.09515023e+00, 1.60306396e+02, 6.49983521e+01, 6.96759949e+01 ]
      - [ 6.83447027e+00, 1.66152237e+02, 5.80195885e+01, 5.34634705e+01 ]
      - [ 7.99455786e+00, 1.66410095e+02, 7.29671478e+01, 6.26930542e+01 ]
      - [ 2.22168159e+00, 1.73026306e+02, 1.00432251e+02, 2.64695435e+02 ]
      - [ 2.21425724e+00, 1.78696609e+02, 6.77336121e+01, 4.01845398e+01 ]
      - [ 2.00947714e+00, 1.63334473e+02, 1.01201851e+02, 2.60566498e+02 ]
      - [ 3.45943332e+00, 1.67659500e+02, 6.83121490e+01, 8.17129822e+01 ]
      - [ 3.75425005e+00, 1.69784927e+02, 1.17551796e+02, 7.80392456e+01 ]
      - [ 1.99927676e+00, 1.76474960e+02, 6.40302124e+01, 4.15874023e+01 ]
      - [ 6.88654041e+00, 1.77861343e+02, 8.63797684e+01, 6.40906372e+01 ]
      - [ 1.96048570e+00, 1.61382645e+02, 9.13008270e+01, 3.59664703e+02 ]
      - [ 1.90501106e+00, 1.70014755e+02, 1.55708878e+02, 7.99856873e+01 ]
   decision_functions:
      -
         sv_count: 22
         rho: -2.3950280462320297e+00
         alpha: [ 1.4881136704575576e-02, 4.7989571297920551e-02,
             3.7096727082681552e-01, 1.3030300465064561e-02,
             3.0292120438929621e-02, 2.5271484490257887e-03,
             5.8294670082624712e-02, 1.6528714102933284e-01,
             1.3347689917775499e-01, 1.5805139853525993e-01,
             -8.6951920439692798e-02, -3.6844811921407955e-02,
             -1.8738437568729127e-01, -6.7300959201414975e-02,
             -2.5326782681299086e-02, -7.9937800033404033e-03,
             -9.7465277890647850e-02, -5.1523263454719026e-02,
             -7.7658376260429166e-02, -3.5083626554593017e-01,
             -2.9880524337167680e-03, -2.5237915567837151e-03 ]
         index: [ 0, 1, 2, 3, 4, 5, 6, 7, 8, 9, 10, 11, 12, 13, 14, 15,
             16, 17, 18, 19, 20, 21 ]
