%YAML:1.0
---
opencv_ml_svm:
   format: 3
   svmType: C_SVC
   kernel:
      type: INTER
      gamma: 1.
   C: 100.
   term_criteria: { iterations:10000000 }
   var_count: 4
   class_count: 2
   class_labels: !!opencv-matrix
      rows: 2
      cols: 1
      dt: i
      data: [ 1, 2 ]
   sv_total: 8
   support_vectors:
      - [ 5.32824183e+00, 1.89395981e+02, 6.92487869e+01, 7.61232300e+01 ]
      - [ 5.32824183e+00, 1.89395981e+02, 6.92487869e+01, 2.56798431e+02 ]
      - [ 4.99393988e+00, 1.87743988e+02, 4.09244232e+01, 8.19570313e+01 ]
      - [ 5.02603531e+00, 1.86616531e+02, 5.93522758e+01, 8.28283997e+01 ]
      - [ 9.58686447e+00, 1.81620682e+02, 5.64992638e+01, 8.90507202e+01 ]
      - [ 5.07919216e+00, 1.90055649e+02, 6.68423615e+01, 8.07141113e+01 ]
      - [ 6.36749554e+00, 1.97996246e+02, 9.93376312e+01, 2.23904831e+02 ]
      - [ 6.21539831e+00, 1.95144730e+02, 6.71094818e+01, 2.21056610e+02 ]
   decision_functions:
      -
         sv_count: 8
         rho: -1.4674876164968087e+00
         alpha: [ 2.3902519075760376e-01, 2.7916473891562595e-02,
             3.0149694141648729e-02, 2.2750686709019399e-01,
             -1.1493145503400115e-01, -3.8592973891074456e-01,
             -1.6625619937774942e-02, -7.1114119984885529e-03 ]
         index: [ 0, 1, 2, 3, 4, 5, 6, 7 ]
