%YAML:1.0
---
opencv_ml_svm:
   format: 3
   svmType: C_SVC
   kernel:
      type: INTER
      gamma: 1.
   C: 100.
   term_criteria: { iterations:10000000 }
   var_count: 4
   class_count: 2
   class_labels: !!opencv-matrix
      rows: 2
      cols: 1
      dt: i
      data: [ 1, 2 ]
   sv_total: 8
   support_vectors:
      - [ 1.87867010e+00, 1.96060608e+02, 6.15984201e+00, 9.16200867e+01 ]
      - [ 2.17124534e+00, 1.95437332e+02, 3.75072074e+00, 7.75122681e+01 ]
      - [ 3.14630961e+00, 1.91200333e+02, 5.61029167e+01, 7.67305908e+01 ]
      - [ 1.89408863e+00, 1.95698669e+02, 7.00824966e+01, 1.50187286e+02 ]
      - [ 2.14663696e+00, 1.97786865e+02, 5.38028069e+01, 1.79707108e+02 ]
      - [ 2.06395984e+00, 1.99090729e+02, 6.22411652e+01, 2.52929993e+01 ]
      - [ 2.53361773e+00, 1.98580292e+02, 1.02729218e+02, 7.24539490e+01 ]
      - [ 2.06712794e+00, 1.97995163e+02, 5.74356995e+01, 7.88555603e+01 ]
   decision_functions:
      -
         sv_count: 8
         rho: -3.2968655931118835e+00
         alpha: [ 1.1969763195693395e-02, 7.2460391723848513e-03,
             1.6471643674291950e-01, 1.2818901482722108e-02,
             5.6337276187805162e-03, 3.0136702886086081e-02,
             -1.8110950456034024e-02, -2.1441062064255240e-01 ]
         index: [ 0, 1, 2, 3, 4, 5, 6, 7 ]
