%YAML:1.0
---
opencv_ml_svm:
   format: 3
   svmType: C_SVC
   kernel:
      type: INTER
      gamma: 1.
   C: 100.
   term_criteria: { iterations:10000000 }
   var_count: 4
   class_count: 2
   class_labels: !!opencv-matrix
      rows: 2
      cols: 1
      dt: i
      data: [ 1, 2 ]
   sv_total: 18
   support_vectors:
      - [ 2.45034194e+00, 1.86668686e+02, 6.23081322e+01, 6.30150146e+01 ]
      - [ 2.66708016e+00, 1.89368317e+02, 5.96337242e+01, 3.55694946e+02 ]
      - [ 1.91055644e+00, 1.97737930e+02, 1.46898520e+00, 2.56548431e+02 ]
      - [ 2.40022659e+00, 1.93655441e+02, 4.27695770e+01, 8.20823975e+01 ]
      - [ 2.61455798e+00, 1.84456161e+02, 2.47382412e+01, 2.33184998e+02 ]
      - [ 1.91870248e+00, 1.91196564e+02, 1.71859818e+01, 2.50975266e+02 ]
      - [ 2.38896275e+00, 1.97876831e+02, 8.49240303e+00, 2.54448944e+02 ]
      - [ 4.20194006e+00, 1.84432495e+02, 7.29820557e+01, 8.40167542e+01 ]
      - [ 2.12951159e+00, 1.97168427e+02, 3.81223273e+00, 2.38046234e+02 ]
      - [ 2.06712794e+00, 1.97995163e+02, 5.74356995e+01, 7.88555603e+01 ]
      - [ 5.30259466e+00, 1.83463928e+02, 5.21465454e+01, 9.11723633e+01 ]
      - [ 2.46836066e+00, 1.87872635e+02, 5.74840393e+01, 2.40179443e+01 ]
      - [ 2.11140990e+00, 1.91165359e+02, 4.96969032e+01, 3.06959229e+01 ]
      - [ 3.66408324e+00, 1.80302368e+02, 1.04430824e+02, 8.75467224e+01 ]
      - [ 2.92817926e+00, 1.98511612e+02, 9.97403946e+01, 7.04562683e+01 ]
      - [ 1.93202770e+00, 1.94131378e+02, 1.11910187e+02, 5.87095337e+01 ]
      - [ 2.05757618e+00, 1.86619492e+02, 7.62213287e+01, 2.50513397e+02 ]
      - [ 5.40609264e+00, 1.97958633e+02, 6.56163559e+01, 2.84916779e+02 ]
   decision_functions:
      -
         sv_count: 18
         rho: -1.7921914367511134e+00
         alpha: [ 9.7828499002846861e-02, 2.2401645255789724e-02,
             8.2744777029889819e-05, 8.2741462331181612e-02,
             8.8973021386154645e-04, 2.0411768771347344e-02,
             2.9425225666065584e-02, 1.3524341690429473e-01,
             6.3269131488729348e-03, -1.2540457010935641e-01,
             -1.1169537378743792e-01, -2.4653444658388661e-03,
             -3.6254946797287198e-02, -1.2753270057300793e-02,
             -1.8890912466558978e-03, -2.1862508727103949e-02,
             -7.4220984278235369e-02, -8.8053166020734420e-03 ]
         index: [ 0, 1, 2, 3, 4, 5, 6, 7, 8, 9, 10, 11, 12, 13, 14, 15,
             16, 17 ]
