%YAML:1.0
---
opencv_ml_svm:
   format: 3
   svmType: C_SVC
   kernel:
      type: INTER
      gamma: 1.
   C: 100.
   term_criteria: { iterations:10000000 }
   var_count: 4
   class_count: 2
   class_labels: !!opencv-matrix
      rows: 2
      cols: 1
      dt: i
      data: [ 1, 2 ]
   sv_total: 15
   support_vectors:
      - [ 3.11763597e+00, 1.99167740e+02, 6.45523071e+01, 8.24805908e+01 ]
      - [ 3.10192227e+00, 1.88682800e+02, 4.71973648e+01, 5.63680420e+01 ]
      - [ 3.10192227e+00, 1.88682800e+02, 4.71973648e+01, 2.58038879e+02 ]
      - [ 5.38416624e+00, 1.94632523e+02, 3.86133695e+00, 5.08107910e+01 ]
      - [ 3.22454262e+00, 1.86644226e+02, 5.66744003e+01, 8.41849365e+01 ]
      - [ 3.22454262e+00, 1.86644226e+02, 5.66744003e+01, 2.74791260e+02 ]
      - [ 6.14261580e+00, 1.89223984e+02, 3.54048729e+01, 6.32371826e+01 ]
      - [ 3.18662262e+00, 1.90759766e+02, 1.08618145e+01, 4.74071960e+01 ]
      - [ 4.21219587e+00, 1.83422714e+02, 6.13235474e+01, 2.47102112e+02 ]
      - [ 6.85883093e+00, 1.83059891e+02, 5.50126343e+01, 2.17805786e+02 ]
      - [ 2.22546101e+01, 1.86884262e+02, 5.27546463e+01, 3.83071594e+01 ]
      - [ 7.20095539e+00, 1.87951385e+02, 7.73046417e+01, 7.10517578e+01 ]
      - [ 6.24992704e+00, 1.97569321e+02, 6.50284729e+01, 2.01474472e+02 ]
      - [ 3.21744204e+00, 1.97925339e+02, 8.66588287e+01, 8.72836609e+01 ]
      - [ 2.11931062e+00, 1.99072891e+02, 1.22379906e+02, 3.07600861e+02 ]
   decision_functions:
      -
         sv_count: 15
         rho: -3.3546741631773702e-01
         alpha: [ 7.9324566889730566e-02, 1.3035382945175663e-02,
             3.7179925585720787e-02, 5.0981908171907316e-03,
             2.1960499316385985e-02, 3.6693917088826203e-02,
             5.0592232052626253e-03, 1.0247766367913562e-03,
             -6.2645877965693500e-02, -6.6612733471541879e-03,
             -3.7951821843823848e-02, -1.9685674692281996e-02,
             -1.1407480384424995e-02, -5.6572692750782569e-02,
             -4.4516615009226670e-03 ]
         index: [ 0, 1, 2, 3, 4, 5, 6, 7, 8, 9, 10, 11, 12, 13, 14 ]
